{"learner":{"attributes":{"scikit_learn":"{\"_estimator_type\": \"regressor\"}"},"feature_names":["Category_Encoded","Sub_Category_Encoded","Lag_1","Lag_2","Rolling_Mean_3","Month","Year"],"feature_types":["int","int","float","float","float","int","int"],"gradient_booster":{"model":{"gbtree_model_param":{"num_parallel_tree":"1","num_trees":"200"},"iteration_indptr":[0,1,2,3,4,5,6,7,8,9,10,11,12,13,14,15,16,17,18,19,20,21,22,23,24,25,26,27,28,29,30,31,32,33,34,35,36,37,38,39,40,41,42,43,44,45,46,47,48,49,50,51,52,53,54,55,56,57,58,59,60,61,62,63,64,65,66,67,68,69,70,71,72,73,74,75,76,77,78,79,80,81,82,83,84,85,86,87,88,89,90,91,92,93,94,95,96,97,98,99,100,101,102,103,104,105,106,107,108,109,110,111,112,113,114,115,116,117,118,119,120,121,122,123,124,125,126,127,128,129,130,131,132,133,134,135,136,137,138,139,140,141,142,143,144,145,146,147,148,149,150,151,152,153,154,155,156,157,158,159,160,161,162,163,164,165,166,167,168,169,170,171,172,173,174,175,176,177,178,179,180,181,182,183,184,185,186,187,188,189,190,191,192,193,194,195,196,197,198,199,200],"tree_info":[0,0,0,0,0,0,0,0,0,0,0,0,0,0,0,0,0,0,0,0,0,0,0,0,0,0,0,0,0,0,0,0,0,0,0,0,0,0,0,0,0,0,0,0,0,0,0,0,0,0,0,0,0,0,0,0,0,0,0,0,0,0,0,0,0,0,0,0,0,0,0,0,0,0,0,0,0,0,0,0,0,0,0,0,0,0,0,0,0,0,0,0,0,0,0,0,0,0,0,0,0,0,0,0,0,0,0,0,0,0,0,0,0,0,0,0,0,0,0,0,0,0,0,0,0,0,0,0,0,0,0,0,0,0,0,0,0,0,0,0,0,0,0,0,0,0,0,0,0,0,0,0,0,0,0,0,0,0,0,0,0,0,0,0,0,0,0,0,0,0,0,0,0,0,0,0,0,0,0,0,0,0,0,0,0,0,0,0,0,0,0,0,0,0,0,0,0,0,0,0],"trees":[{"base_weights":[1.06954126E-7,-5.141559E0,1.4532775E1,-8.016883E0,-3.2002637E-1,1.0586776E1,3.3022923E1,-9.620287E0,-5.8965926E0,-7.1442986E0,8.702684E-1,-2.6882455E0,1.301115E1,1.406738E0,3.5081417E1,-1.0746071E0,-8.733899E-1,-9.393892E-1,-5.3567023E0,-7.318583E-1,-9.578877E-2,-1.1232126E0,2.9683142E0,-5.642093E0,-1.5199865E0,9.708267E0,1.8455122E1,2.7746212E0,4.2539287E0,-3.4374133E-1,-5.7869256E-1,8.917432E-2,-2.760564E-1,4.858016E-1,5.1796254E-2,-6.096479E-1,-1.4578877E-1,-2.135217E-2,-2.0646484E-1,1.1965988E0,7.3867416E-1,1.88172E0,6.389483E-1],"categories":[],"categories_nodes":[],"categories_segments":[],"categories_sizes":[],"default_left":[0,0,0,0,0,0,0,0,0,0,0,0,0,0,0,0,0,0,0,0,0,0,0,0,0,0,0,0,0,0,0,0,0,0,0,0,0,0,0,0,0,0,0],"id":0,"left_children":[1,3,5,7,9,11,13,15,17,19,21,23,25,-1,27,-1,-1,-1,29,-1,-1,31,33,35,37,39,41,-1,-1,-1,-1,-1,-1,-1,-1,-1,-1,-1,-1,-1,-1,-1,-1],"loss_changes":[5.6040844E4,7.677796E3,1.3950965E4,1.1229609E3,1.6957798E3,5.280908E3,8.331719E2,1.0173047E2,2.3667969E2,2.6413574E1,7.478038E2,8.114642E1,2.3021816E3,0E0,4.6084375E2,0E0,0E0,0E0,9.075488E1,0E0,0E0,3.0598727E2,4.0033148E2,4.4207306E0,1.3790791E1,3.728496E2,1.02572266E2,0E0,0E0,0E0,0E0,0E0,0E0,0E0,0E0,0E0,0E0,0E0,0E0,0E0,0E0,0E0,0E0],"parents":[2147483647,0,0,1,1,2,2,3,3,4,4,5,5,6,6,7,7,8,8,9,9,10,10,11,11,12,12,14,14,18,18,21,21,22,22,23,23,24,24,25,25,26,26],"right_children":[2,4,6,8,10,12,14,16,18,20,22,24,26,-1,28,-1,-1,-1,30,-1,-1,32,34,36,38,40,42,-1,-1,-1,-1,-1,-1,-1,-1,-1,-1,-1,-1,-1,-1,-1,-1],"split_conditions":[1.7333334E1,8.666667E0,3.3666668E1,5E0,3E0,3E0,8E0,3E0,3E0,1.6666666E1,1.2333333E1,2.017E3,2.4333334E1,1.406738E0,4.1666668E1,-1.0746071E0,-8.733899E-1,-9.393892E-1,5E0,-7.318583E-1,-9.578877E-2,1E1,1.6E1,3.6E1,2.3E1,2E1,4.8E1,2.7746212E0,4.2539287E0,-3.4374133E-1,-5.7869256E-1,8.917432E-2,-2.760564E-1,4.858016E-1,5.1796254E-2,-6.096479E-1,-1.4578877E-1,-2.135217E-2,-2.0646484E-1,1.1965988E0,7.3867416E-1,1.88172E0,6.389483E-1],"split_indices":[4,4,4,4,5,5,5,4,5,4,4,6,4,0,4,0,0,0,5,0,0,2,2,2,2,2,2,0,0,0,0,0,0,0,0,0,0,0,0,0,0,0,0],"split_type":[0,0,0,0,0,0,0,0,0,0,0,0,0,0,0,0,0,0,0,0,0,0,0,0,0,0,0,0,0,0,0,0,0,0,0,0,0,0,0,0,0,0,0],"sum_hessian":[7.48E2,5.53E2,1.95E2,3.46E2,2.07E2,1.62E2,3.3E1,1.95E2,1.51E2,3E1,1.77E2,2.5E1,1.37E2,4E0,2.9E1,8.1E1,1.14E2,1.8E1,1.33E2,2.9E1,1E0,9.1E1,8.6E1,6E0,1.9E1,8.7E1,5E1,1.7E1,1.2E1,2.6E1,1.07E2,4.1E1,5E1,4.8E1,3.8E1,5E0,1E0,6E0,1.3E1,4.2E1,4.5E1,4.8E1,2E0],"tree_param":{"num_deleted":"0","num_feature":"7","num_nodes":"43","size_leaf_vector":"1"}},{"base_weights":[1.0175328E-2,-4.635141E0,1.3140252E1,-7.6951094E0,-9.3749994E-1,9.549403E0,2.9968729E1,-8.786358E0,-6.0267267E0,-6.6494923E0,-4.6425767E-2,-2.4572384E0,1.1742325E1,1.2941989E0,3.180756E1,-9.6845686E-1,-7.9619613E0,-5.121343E0,-7.59206E-1,-6.7958415E-1,-9.099932E-2,-2.5039892E0,1.9646916E0,-5.1858034E0,-1.3793789E0,8.759433E0,1.6659035E1,2.5125738E1,3.861258E0,-5.9222454E-1,-8.279976E-1,-2.5108227E-1,-5.7253045E-1,1.7195782E-3,-3.2672057E-1,4.594626E-1,9.674723E-2,-5.58844E-1,-1.384993E-1,-1.9522013E-2,-1.8729313E-1,6.0570776E-1,1.0601199E0,1.8562422E0,1.3306279E0,2.6888964E0,1.2232202E0],"categories":[],"categories_nodes":[],"categories_segments":[],"categories_sizes":[],"default_left":[0,0,0,0,0,0,0,0,0,0,0,0,0,0,0,0,0,0,0,0,0,0,0,0,0,0,0,0,0,0,0,0,0,0,0,0,0,0,0,0,0,0,0,0,0,0,0],"id":1,"left_children":[1,3,5,7,9,11,13,15,17,19,21,23,25,-1,27,-1,29,31,-1,-1,-1,33,35,37,39,41,43,45,-1,-1,-1,-1,-1,-1,-1,-1,-1,-1,-1,-1,-1,-1,-1,-1,-1,-1,-1],"loss_changes":[4.5744934E4,6.2611104E3,1.1557805E4,4.986953E2,1.2823231E3,4.320582E3,6.528633E2,5.6918945E1,1.354375E2,2.2374634E1,1.0873158E3,6.931308E1,1.8779883E3,0E0,3.939297E2,0E0,1.5830078E1,1.13333984E2,0E0,0E0,0E0,1.9055292E2,3.12892E2,2.972458E0,1.1323254E1,3.7377295E2,7.846484E1,8.030371E1,0E0,0E0,0E0,0E0,0E0,0E0,0E0,0E0,0E0,0E0,0E0,0E0,0E0,0E0,0E0,0E0,0E0,0E0,0E0],"parents":[2147483647,0,0,1,1,2,2,3,3,4,4,5,5,6,6,7,7,8,8,9,9,10,10,11,11,12,12,14,14,16,16,17,17,21,21,22,22,23,23,24,24,25,25,26,26,27,27],"right_children":[2,4,6,8,10,12,14,16,18,20,22,24,26,-1,28,-1,30,32,-1,-1,-1,34,36,38,40,42,44,46,-1,-1,-1,-1,-1,-1,-1,-1,-1,-1,-1,-1,-1,-1,-1,-1,-1,-1,-1],"split_conditions":[1.7333334E1,7.3333335E0,3.3666668E1,4.6666665E0,3E0,3E0,8E0,3E0,7E0,1.6666666E1,1.1E1,2.017E3,2.4333334E1,1.2941989E0,4.1666668E1,-9.6845686E-1,2E0,4E0,-7.59206E-1,-6.7958415E-1,-9.099932E-2,6E0,1.1E1,3.6E1,2.3E1,1.9333334E1,3.1E1,4.4E1,3.861258E0,-5.9222454E-1,-8.279976E-1,-2.5108227E-1,-5.7253045E-1,1.7195782E-3,-3.2672057E-1,4.594626E-1,9.674723E-2,-5.58844E-1,-1.384993E-1,-1.9522013E-2,-1.8729313E-1,6.0570776E-1,1.0601199E0,1.8562422E0,1.3306279E0,2.6888964E0,1.2232202E0],"split_indices":[4,4,4,4,5,5,5,4,3,4,4,6,4,0,4,0,3,2,0,0,0,3,2,2,2,4,2,2,0,0,0,0,0,0,0,0,0,0,0,0,0,0,0,0,0,0,0],"split_type":[0,0,0,0,0,0,0,0,0,0,0,0,0,0,0,0,0,0,0,0,0,0,0,0,0,0,0,0,0,0,0,0,0,0,0,0,0,0,0,0,0,0,0,0,0,0,0],"sum_hessian":[7.48E2,5.53E2,1.95E2,3.02E2,2.51E2,1.62E2,3.3E1,1.8E2,1.22E2,3.3E1,2.18E2,2.5E1,1.37E2,4E0,2.9E1,8.1E1,9.9E1,8E1,4.2E1,3.2E1,1E0,9.8E1,1.2E2,6E0,1.9E1,8.7E1,5E1,1.7E1,1.2E1,1.6E1,8.3E1,1.6E1,6.4E1,2.3E1,7.5E1,3.2E1,8.8E1,5E0,1E0,6E0,1.3E1,3.7E1,5E1,2.9E1,2.1E1,1.4E1,3E0],"tree_param":{"num_deleted":"0","num_feature":"7","num_nodes":"47","size_leaf_vector":"1"}},{"base_weights":[2.051328E-2,-4.0502796E0,1.22763195E1,-6.532562E0,-6.225094E-2,8.893254E0,2.7238548E1,-7.827237E0,-4.820134E0,-5.817891E0,8.9222556E-1,-2.2462902E0,1.1069493E1,1.190663E0,2.8885918E1,-8.7279224E-1,-7.116947E0,-4.0954556E0,-6.7468486E0,-5.954189E-1,-8.644934E-2,-9.5254594E-1,2.6508377E0,-4.766844E0,-1.251782E0,8.356051E0,1.505562E1,2.3444355E1,3.6153672E0,-6.351653E-1,-7.8363293E-1,-4.7866365E-1,-2.8130636E-1,-7.172531E-1,-4.4836622E-1,8.193939E-2,-2.3931132E-1,4.3569323E-1,7.0167094E-2,-5.1227367E-1,-1.3157435E-1,-2.4447902E-1,-6.911265E-2,1.0161303E0,6.341898E-1,1.5359334E0,5.076433E-1,2.4919293E0,1.1314788E0],"categories":[],"categories_nodes":[],"categories_segments":[],"categories_sizes":[],"default_left":[0,0,0,0,0,0,0,0,0,0,0,0,0,0,0,0,0,0,0,0,0,0,0,0,0,0,0,0,0,0,0,0,0,0,0,0,0,0,0,0,0,0,0,0,0,0,0,0,0],"id":2,"left_children":[1,3,5,7,9,11,13,15,17,19,21,23,25,-1,27,-1,29,31,33,-1,-1,35,37,39,41,43,45,47,-1,-1,-1,-1,-1,-1,-1,-1,-1,-1,-1,-1,-1,-1,-1,-1,-1,-1,-1,-1,-1],"loss_changes":[3.7417965E4,5.572963E3,9.223365E3,7.31584E2,1.1973071E3,3.7581816E3,5.1481445E2,6.3274414E1,1.8459814E2,1.5781738E1,6.0919745E2,5.9207443E1,1.2694746E3,0E0,3.3883984E2,0E0,1.3538086E1,8.669409E1,6.376831E0,0E0,0E0,2.3679994E2,3.1618732E2,1.8573303E0,1.1687668E1,2.2280615E2,7.660156E1,7.5850586E1,0E0,0E0,0E0,0E0,0E0,0E0,0E0,0E0,0E0,0E0,0E0,0E0,0E0,0E0,0E0,0E0,0E0,0E0,0E0,0E0,0E0],"parents":[2147483647,0,0,1,1,2,2,3,3,4,4,5,5,6,6,7,7,8,8,9,9,10,10,11,11,12,12,14,14,16,16,17,17,18,18,21,21,22,22,23,23,24,24,25,25,26,26,27,27],"right_children":[2,4,6,8,10,12,14,16,18,20,22,24,26,-1,28,-1,30,32,34,-1,-1,36,38,40,42,44,46,48,-1,-1,-1,-1,-1,-1,-1,-1,-1,-1,-1,-1,-1,-1,-1,-1,-1,-1,-1,-1,-1],"split_conditions":[1.7666666E1,8.666667E0,3.3666668E1,5E0,3E0,3E0,8E0,3E0,8E0,1.6666666E1,1.2333333E1,2.017E3,2.4333334E1,1.190663E0,4.2666668E1,-8.7279224E-1,4E0,7E0,1.1E1,-5.954189E-1,-8.644934E-2,1E1,1.6E1,3.6E1,2E1,2E1,4.8E1,5E1,3.6153672E0,-6.351653E-1,-7.8363293E-1,-4.7866365E-1,-2.8130636E-1,-7.172531E-1,-4.4836622E-1,8.193939E-2,-2.3931132E-1,4.3569323E-1,7.0167094E-2,-5.1227367E-1,-1.3157435E-1,-2.4447902E-1,-6.911265E-2,1.0161303E0,6.341898E-1,1.5359334E0,5.076433E-1,2.4919293E0,1.1314788E0],"split_indices":[4,4,4,4,5,5,5,4,3,4,4,6,4,0,4,0,2,4,5,0,0,2,2,2,4,2,2,2,0,0,0,0,0,0,0,0,0,0,0,0,0,0,0,0,0,0,0,0,0],"split_type":[0,0,0,0,0,0,0,0,0,0,0,0,0,0,0,0,0,0,0,0,0,0,0,0,0,0,0,0,0,0,0,0,0,0,0,0,0,0,0,0,0,0,0,0,0,0,0,0,0],"sum_hessian":[7.48E2,5.62E2,1.86E2,3.46E2,2.16E2,1.53E2,3.3E1,1.95E2,1.51E2,3E1,1.86E2,2.5E1,1.28E2,4E0,2.9E1,8.1E1,1.14E2,1.12E2,3.9E1,2.9E1,1E0,9.1E1,9.5E1,6E0,1.9E1,7.8E1,5E1,1.9E1,1E1,6E1,5.4E1,7.1E1,4.1E1,3.1E1,8E0,4.1E1,5E1,5E1,4.5E1,5E0,1E0,5E0,1.4E1,3.9E1,3.9E1,4.8E1,2E0,1.6E1,3E0],"tree_param":{"num_deleted":"0","num_feature":"7","num_nodes":"49","size_leaf_vector":"1"}},{"base_weights":[2.7294172E-2,-3.773916E0,1.0771392E1,-5.891459E0,-2.2314063E-1,7.7868943E0,2.4762617E1,-6.9734426E0,-4.2222066E0,-5.2580976E0,6.549876E-1,-2.0584855E0,9.585395E0,1.09541E0,2.6238617E1,-7.6565355E-1,-6.1671987E0,-3.5760615E0,-5.9068213E0,-5.3786163E0,-8.2126856E-2,-8.590021E-1,2.2484596E0,-4.382138E0,-1.1422832E0,6.814471E0,1.3180115E1,2.128109E1,3.286697E1,-5.606483E-1,-7.7325577E-1,-2.2101395E-1,-4.518137E-1,-6.2825125E-1,-4.0399477E-1,-6.4998376E-1,-4.387392E-1,7.394051E-2,-2.1584943E-1,5.776157E-1,1.2444784E-1,-1.11750506E-1,-4.7399923E-1,-4.4090683E-3,-1.6097878E-1,7.947111E-1,2.4716465E-1,1.6822318E0,1.155613E0,2.2573946E0,1.0466179E0,3.4318302E0,9.1768354E-1],"categories":[],"categories_nodes":[],"categories_segments":[],"categories_sizes":[],"default_left":[0,0,0,0,0,0,0,0,0,0,0,0,0,0,0,0,0,0,0,0,0,0,0,0,0,0,0,0,0,0,0,0,0,0,0,0,0,0,0,0,0,0,0,0,0,0,0,0,0,0,0,0,0],"id":3,"left_children":[1,3,5,7,9,11,13,15,17,19,21,23,25,-1,27,-1,29,31,33,35,-1,37,39,41,43,45,47,49,51,-1,-1,-1,-1,-1,-1,-1,-1,-1,-1,-1,-1,-1,-1,-1,-1,-1,-1,-1,-1,-1,-1,-1,-1],"loss_changes":[3.0630238E4,4.1641655E3,7.991504E3,5.972754E2,9.230822E2,2.905959E3,4.0554492E2,6.788574E1,1.301792E2,1.2159058E1,4.313564E2,5.0346687E1,1.2847607E3,0E0,2.8636328E2,0E0,4.5297607E1,1.2255481E2,5.695801E-1,4.8240967E0,0E0,1.9269086E2,3.0094318E2,2.88089E0,1.0197222E1,3.7386597E2,1.5457715E2,4.3379883E1,6.3271484E1,0E0,0E0,0E0,0E0,0E0,0E0,0E0,0E0,0E0,0E0,0E0,0E0,0E0,0E0,0E0,0E0,0E0,0E0,0E0,0E0,0E0,0E0,0E0,0E0],"parents":[2147483647,0,0,1,1,2,2,3,3,4,4,5,5,6,6,7,7,8,8,9,9,10,10,11,11,12,12,14,14,16,16,17,17,18,18,19,19,21,21,22,22,23,23,24,24,25,25,26,26,27,27,28,28],"right_children":[2,4,6,8,10,12,14,16,18,20,22,24,26,-1,28,-1,30,32,34,36,-1,38,40,42,44,46,48,50,52,-1,-1,-1,-1,-1,-1,-1,-1,-1,-1,-1,-1,-1,-1,-1,-1,-1,-1,-1,-1,-1,-1,-1,-1],"split_conditions":[1.7333334E1,8.666667E0,3.3666668E1,5.3333335E0,3E0,3E0,8E0,3.3333333E0,8E0,1.6666666E1,1.2333333E1,2.017E3,2.3E1,1.09541E0,4.2666668E1,-7.6565355E-1,6E0,7E0,1.6E1,2E0,-8.2126856E-2,1E1,1.2E1,1.1E1,2.3E1,2.4E1,2.4E1,5E1,7.6E1,-5.606483E-1,-7.7325577E-1,-2.2101395E-1,-4.518137E-1,-6.2825125E-1,-4.0399477E-1,-6.4998376E-1,-4.387392E-1,7.394051E-2,-2.1584943E-1,5.776157E-1,1.2444784E-1,-1.11750506E-1,-4.7399923E-1,-4.4090683E-3,-1.6097878E-1,7.947111E-1,2.4716465E-1,1.6822318E0,1.155613E0,2.2573946E0,1.0466179E0,3.4318302E0,9.1768354E-1],"split_indices":[4,4,4,4,5,5,5,4,3,4,4,6,4,0,4,0,3,2,1,5,0,2,2,2,2,2,2,2,2,0,0,0,0,0,0,0,0,0,0,0,0,0,0,0,0,0,0,0,0,0,0,0,0],"split_type":[0,0,0,0,0,0,0,0,0,0,0,0,0,0,0,0,0,0,0,0,0,0,0,0,0,0,0,0,0,0,0,0,0,0,0,0,0,0,0,0,0,0,0,0,0,0,0,0,0,0,0,0,0],"sum_hessian":[7.48E2,5.53E2,1.95E2,3.46E2,2.07E2,1.62E2,3.3E1,2.08E2,1.38E2,3E1,1.77E2,2.5E1,1.37E2,4E0,2.9E1,1.08E2,1E2,1.02E2,3.6E1,2.9E1,1E0,9.1E1,8.6E1,6E0,1.9E1,7.9E1,5.8E1,1.9E1,1E1,7.7E1,2.3E1,4.3E1,5.9E1,2.8E1,8E0,1.1E1,1.8E1,4.1E1,5E1,1.8E1,6.8E1,1E0,5E0,6E0,1.3E1,6.2E1,1.7E1,1.5E1,4.3E1,1.6E1,3E0,9E0,1E0],"tree_param":{"num_deleted":"0","num_feature":"7","num_nodes":"53","size_leaf_vector":"1"}},{"base_weights":[3.452766E-2,-3.2996047E0,1.0072399E1,-5.194285E0,1.3854782E-1,7.2535944E0,2.2543678E1,-6.2861443E0,-3.688525E0,-4.5954466E0,8.995438E-1,-1.8815273E0,9.038552E0,1.7086934E0,2.6995308E1,-7.109457E-1,-5.7095985E0,-6.4217097E-1,-3.2825465E0,-5.871755E-1,-3.5601783E0,-2.0625964E-1,2.6263294E0,-4.0276027E0,-1.0363246E0,4.816735E0,1.0748578E1,6.048608E-1,2.792644E0,-5.362211E-1,-6.991522E-1,-1.2966324E-1,-3.7360343E-1,-1.1026311E-1,-3.9781788E-1,2.8033236E-1,-1.0181909E-1,4.3471694E-1,4.321922E-2,-4.3612176E-1,-1.01295665E-1,-2.1851936E-1,-5.076887E-2,5.60203E-1,-4.360638E-2,8.9096755E-1,1.3310521E0],"categories":[],"categories_nodes":[],"categories_segments":[],"categories_sizes":[],"default_left":[0,0,0,0,0,0,0,0,0,0,0,0,0,0,0,0,0,0,0,0,0,0,0,0,0,0,0,0,0,0,0,0,0,0,0,0,0,0,0,0,0,0,0,0,0,0,0],"id":4,"left_children":[1,3,5,7,9,11,13,15,17,19,21,23,25,-1,27,-1,29,-1,31,-1,33,35,37,39,41,43,45,-1,-1,-1,-1,-1,-1,-1,-1,-1,-1,-1,-1,-1,-1,-1,-1,-1,-1,-1,-1],"loss_changes":[2.5100459E4,3.6682148E3,6.410291E3,5.736133E2,7.282466E2,2.5281006E3,3.6464258E2,5.861621E1,1.5091064E2,1.6092468E1,3.3279218E2,4.298667E1,8.7953125E2,0E0,1.6265332E2,0E0,1.951123E1,0E0,1.1853638E2,0E0,1.41041565E1,2.643168E2,2.548728E2,2.6223907E0,1.1037266E1,1.6331781E2,3.1012402E2,0E0,0E0,0E0,0E0,0E0,0E0,0E0,0E0,0E0,0E0,0E0,0E0,0E0,0E0,0E0,0E0,0E0,0E0,0E0,0E0],"parents":[2147483647,0,0,1,1,2,2,3,3,4,4,5,5,6,6,7,7,8,8,9,9,10,10,11,11,12,12,14,14,16,16,18,18,20,20,21,21,22,22,23,23,24,24,25,25,26,26],"right_children":[2,4,6,8,10,12,14,16,18,20,22,24,26,-1,28,-1,30,-1,32,-1,34,36,38,40,42,44,46,-1,-1,-1,-1,-1,-1,-1,-1,-1,-1,-1,-1,-1,-1,-1,-1,-1,-1,-1,-1],"split_conditions":[1.7666666E1,9.333333E0,3.3666668E1,5.3333335E0,3E0,3E0,4.0333332E1,3E0,3E0,2E0,1.3666667E1,2.017E3,1.9666666E1,1.7086934E0,2E0,-7.109457E-1,6E0,-6.4217097E-1,5E0,-5.871755E-1,2.2E1,5E0,1.4E1,3.6E1,2E1,2.3E1,2.6333334E1,6.048608E-1,2.792644E0,-5.362211E-1,-6.991522E-1,-1.2966324E-1,-3.7360343E-1,-1.1026311E-1,-3.9781788E-1,2.8033236E-1,-1.0181909E-1,4.3471694E-1,4.321922E-2,-4.3612176E-1,-1.01295665E-1,-2.1851936E-1,-5.076887E-2,5.60203E-1,-4.360638E-2,8.9096755E-1,1.3310521E0],"split_indices":[4,4,4,4,5,5,4,4,5,5,4,6,4,0,5,0,3,0,5,0,3,5,3,2,4,2,4,0,0,0,0,0,0,0,0,0,0,0,0,0,0,0,0,0,0,0,0],"split_type":[0,0,0,0,0,0,0,0,0,0,0,0,0,0,0,0,0,0,0,0,0,0,0,0,0,0,0,0,0,0,0,0,0,0,0,0,0,0,0,0,0,0,0,0,0,0,0],"sum_hessian":[7.48E2,5.62E2,1.86E2,3.62E2,2E2,1.53E2,3.3E1,2.08E2,1.54E2,2.7E1,1.73E2,2.5E1,1.28E2,1.7E1,1.6E1,8.1E1,1.27E2,1.8E1,1.36E2,1E1,1.7E1,1.06E2,6.7E1,6E0,1.9E1,3.8E1,9E1,1E0,1.5E1,1.04E2,2.3E1,2.6E1,1.1E2,3E0,1.4E1,2.2E1,8.4E1,3.7E1,3E1,5E0,1E0,5E0,1.4E1,3.3E1,5E0,5.5E1,3.5E1],"tree_param":{"num_deleted":"0","num_feature":"7","num_nodes":"47","size_leaf_vector":"1"}},{"base_weights":[3.5757888E-2,-2.975915E0,9.102796E0,-5.1192226E0,-4.763054E-1,6.540779E0,2.0439493E1,-5.823563E0,-4.041134E0,-4.4915605E0,1.2454976E-1,-1.7244017E0,8.155926E0,1.6132864E1,2.5439472E1,-6.4071816E-1,-5.2867603E0,-3.3540847E0,-5.241363E-1,-5.524938E-1,-3.491949E0,-1.191127E0,1.9460127E0,-2.744883E0,-3.0509982E-1,6.1214676E0,1.1147422E1,1.8457053E0,1.0048927E1,5.746178E-1,2.6512327E1,-3.5837516E-1,-5.56848E-1,-1.20192446E-1,-3.865356E-1,-4.0939003E-1,-1.789197E-1,-1.436384E-2,-2.2847512E-1,3.4429488E-1,2.4406163E-2,-3.7760624E-1,-1.3705936E-1,-2.3866732E-1,6.5394394E-2,9.646616E-1,5.213796E-1,1.4263085E0,9.4530314E-1,5.1877016E-1,1.1928123E0,2.750141E0,7.321672E-1],"categories":[],"categories_nodes":[],"categories_segments":[],"categories_sizes":[],"default_left":[0,0,0,0,0,0,0,0,0,0,0,0,0,0,0,0,0,0,0,0,0,0,0,0,0,0,0,0,0,0,0,0,0,0,0,0,0,0,0,0,0,0,0,0,0,0,0,0,0,0,0,0,0],"id":5,"left_children":[1,3,5,7,9,11,13,15,17,19,21,23,25,27,29,-1,31,33,-1,-1,35,37,39,41,43,45,47,-1,49,-1,51,-1,-1,-1,-1,-1,-1,-1,-1,-1,-1,-1,-1,-1,-1,-1,-1,-1,-1,-1,-1,-1,-1],"loss_changes":[2.0479996E4,3.0137964E3,5.2976865E3,2.0654639E2,6.302445E2,2.0698838E3,3.217129E2,2.2831543E1,8.384778E1,1.582843E1,5.4871E2,3.6820183E1,7.1686523E2,1.114707E2,1.4344824E2,0E0,2.802124E1,8.448151E1,0E0,0E0,1.3174683E1,1.5203114E2,2.4374011E2,1.6081635E1,2.5516588E1,2.02479E2,1.3440674E2,0E0,1.1201965E1,0E0,4.5398438E1,0E0,0E0,0E0,0E0,0E0,0E0,0E0,0E0,0E0,0E0,0E0,0E0,0E0,0E0,0E0,0E0,0E0,0E0,0E0,0E0,0E0,0E0],"parents":[2147483647,0,0,1,1,2,2,3,3,4,4,5,5,6,6,7,7,8,8,9,9,10,10,11,11,12,12,13,13,14,14,16,16,17,17,20,20,21,21,22,22,23,23,24,24,25,25,26,26,28,28,30,30],"right_children":[2,4,6,8,10,12,14,16,18,20,22,24,26,28,30,-1,32,34,-1,-1,36,38,40,42,44,46,48,-1,50,-1,52,-1,-1,-1,-1,-1,-1,-1,-1,-1,-1,-1,-1,-1,-1,-1,-1,-1,-1,-1,-1,-1,-1],"split_conditions":[1.7666666E1,7.3333335E0,3.3666668E1,4.6666665E0,3E0,3E0,4.1666668E1,3E0,7E0,2E0,1.2333333E1,2.018E3,2.4333334E1,3.8E1,2E0,-6.4071816E-1,2E0,4E0,-5.241363E-1,-5.524938E-1,1.5E1,1E1,1.6E1,2.2666666E1,1E0,1.4E1,2.5E1,1.8457053E0,3.6E1,5.746178E-1,7.6E1,-3.5837516E-1,-5.56848E-1,-1.20192446E-1,-3.865356E-1,-4.0939003E-1,-1.789197E-1,-1.436384E-2,-2.2847512E-1,3.4429488E-1,2.4406163E-2,-3.7760624E-1,-1.3705936E-1,-2.3866732E-1,6.5394394E-2,9.646616E-1,5.213796E-1,1.4263085E0,9.4530314E-1,5.1877016E-1,1.1928123E0,2.750141E0,7.321672E-1],"split_indices":[4,4,4,4,5,5,4,4,3,5,4,6,4,2,5,0,3,2,0,0,4,2,2,4,0,2,2,0,4,0,2,0,0,0,0,0,0,0,0,0,0,0,0,0,0,0,0,0,0,0,0,0,0],"split_type":[0,0,0,0,0,0,0,0,0,0,0,0,0,0,0,0,0,0,0,0,0,0,0,0,0,0,0,0,0,0,0,0,0,0,0,0,0,0,0,0,0,0,0,0,0,0,0,0,0,0,0,0,0],"sum_hessian":[7.48E2,5.62E2,1.86E2,3.02E2,2.6E2,1.53E2,3.3E1,1.8E2,1.22E2,3.3E1,2.27E2,2.5E1,1.28E2,2E1,1.3E1,8.1E1,9.9E1,8E1,4.2E1,1.4E1,1.9E1,1.32E2,9.5E1,1.4E1,1.1E1,7.8E1,5E1,1.3E1,7E0,1E0,1.2E1,1.6E1,8.3E1,1.6E1,6.4E1,1.3E1,6E0,6.8E1,6.4E1,5E1,4.5E1,7E0,7E0,3E0,8E0,1.4E1,6.4E1,1.5E1,3.5E1,3E0,4E0,1.1E1,1E0],"tree_param":{"num_deleted":"0","num_feature":"7","num_nodes":"53","size_leaf_vector":"1"}},{"base_weights":[4.1771244E-2,-2.2752976E0,9.7924795E0,-4.017241E0,1.0771574E0,7.0004897E0,1.8619492E1,-5.118654E0,-2.7909975E0,-3.27753E0,1.7727617E0,-1.3086207E0,8.841048E0,1.5035751E1,2.39367E1,-5.6336236E-1,-4.512214E0,-5.46004E-1,-2.4112403E0,-2.4631498E0,-4.8135802E-1,6.461375E-1,3.1113353E0,-2.1779826E0,9.252654E-2,1.1843736E1,7.7120214E0,7.2388476E-1,1.5843345E1,5.4588693E-1,2.5120243E1,-4.0567413E-1,-5.804492E-1,-5.450512E-2,-2.8946102E-1,-2.9877192E-1,-1.8698407E-2,1.8119228E-1,-1.1186939E-1,6.795699E-1,2.2528529E-1,-2.5550526E-1,-6.939888E-3,1.7893295E-1,-6.478929E-2,9.573024E-1,1.566636E0,4.7592312E-1,9.0849555E-1,1.6897439E0,7.4026096E-1,2.624115E0,6.9555885E-1],"categories":[],"categories_nodes":[],"categories_segments":[],"categories_sizes":[],"default_left":[0,0,0,0,0,0,0,0,0,0,0,0,0,0,0,0,0,0,0,0,0,0,0,0,0,0,0,0,0,0,0,0,0,0,0,0,0,0,0,0,0,0,0,0,0,0,0,0,0,0,0,0,0],"id":6,"left_children":[1,3,5,7,9,11,13,15,17,19,21,23,25,27,29,-1,31,-1,33,35,-1,37,39,41,43,45,47,-1,49,-1,51,-1,-1,-1,-1,-1,-1,-1,-1,-1,-1,-1,-1,-1,-1,-1,-1,-1,-1,-1,-1,-1,-1],"loss_changes":[1.6944486E4,3.5432383E3,3.4185234E3,5.24603E2,6.3587115E2,1.7091382E3,2.8798047E2,3.9850098E1,1.8042981E2,2.442038E1,2.6944208E2,2.5781704E1,2.1716064E2,3.0137207E1,1.2530322E2,0E0,3.590088E1,0E0,1.5087042E2,2.4515488E1,0E0,2.0571103E2,2.440531E2,1.0158764E1,1.2466406E1,4.966748E1,2.364878E2,0E0,5.286084E1,0E0,4.1446777E1,0E0,0E0,0E0,0E0,0E0,0E0,0E0,0E0,0E0,0E0,0E0,0E0,0E0,0E0,0E0,0E0,0E0,0E0,0E0,0E0,0E0,0E0],"parents":[2147483647,0,0,1,1,2,2,3,3,4,4,5,5,6,6,7,7,8,8,9,9,10,10,11,11,12,12,13,13,14,14,16,16,18,18,19,19,21,21,22,22,23,23,24,24,25,25,26,26,28,28,30,30],"right_children":[2,4,6,8,10,12,14,16,18,20,22,24,26,28,30,-1,32,-1,34,36,-1,38,40,42,44,46,48,-1,50,-1,52,-1,-1,-1,-1,-1,-1,-1,-1,-1,-1,-1,-1,-1,-1,-1,-1,-1,-1,-1,-1,-1,-1],"split_conditions":[1.9666666E1,1.0666667E1,3.3666668E1,5.3333335E0,3E0,3E0,4.2666668E1,3.3333333E0,3E0,1.7E1,1.5E1,2.018E3,1.9E1,8E0,2E0,-5.6336236E-1,6E0,-5.46004E-1,5E0,1.6666666E1,-4.8135802E-1,1.2E1,1.3E1,3.7E1,2.3E1,2.5333334E1,2.3333334E1,7.2388476E-1,5E1,5.4588693E-1,7.6E1,-4.0567413E-1,-5.804492E-1,-5.450512E-2,-2.8946102E-1,-2.9877192E-1,-1.8698407E-2,1.8119228E-1,-1.1186939E-1,6.795699E-1,2.2528529E-1,-2.5550526E-1,-6.939888E-3,1.7893295E-1,-6.478929E-2,9.573024E-1,1.566636E0,4.7592312E-1,9.0849555E-1,1.6897439E0,7.4026096E-1,2.624115E0,6.9555885E-1],"split_indices":[4,4,4,4,5,5,4,4,5,2,4,6,2,5,5,0,3,0,5,4,0,3,2,2,2,4,4,0,2,0,2,0,0,0,0,0,0,0,0,0,0,0,0,0,0,0,0,0,0,0,0,0,0],"split_type":[0,0,0,0,0,0,0,0,0,0,0,0,0,0,0,0,0,0,0,0,0,0,0,0,0,0,0,0,0,0,0,0,0,0,0,0,0,0,0,0,0,0,0,0,0,0,0,0,0,0,0,0,0],"sum_hessian":[7.48E2,6.05E2,1.43E2,3.98E2,2.07E2,1.1E2,3.3E1,2.08E2,1.9E2,2.8E1,1.79E2,2E1,9E1,2.2E1,1.1E1,1.08E2,1E2,2.2E1,1.68E2,2E1,8E0,9.8E1,8.1E1,1.2E1,8E0,2.2E1,6.8E1,3E0,1.9E1,1E0,1E1,7.7E1,2.3E1,3.5E1,1.33E2,1.6E1,4E0,5.9E1,3.9E1,1.4E1,6.7E1,1E1,2E0,2E0,6E0,1.6E1,6E0,2.3E1,4.5E1,1.6E1,3E0,9E0,1E0],"tree_param":{"num_deleted":"0","num_feature":"7","num_nodes":"53","size_leaf_vector":"1"}},{"base_weights":[4.8963256E-2,-2.051504E0,8.888089E0,-3.6216307E0,9.7028476E-1,6.3343153E0,1.6963997E1,-4.3224287E0,-1.9758097E0,-2.9773228E0,1.6008978E0,-1.1848205E0,7.9998927E0,1.3669302E1,2.186516E1,-5.07543E-1,-3.8171685E0,-1.3717774E0,-4.359949E0,-2.2319524E0,-4.385707E-1,2.4015717E-1,2.548583E0,-1.9803722E0,9.595617E-2,6.5782504E0,9.989118E0,1.5423786E1,9.22635E0,5.1859254E-1,2.2910007E1,-3.1320617E-1,-4.5058113E-1,1.2767781E-1,-1.7918716E-1,-4.6274915E-1,-1.8653667E-1,-2.706522E-1,-1.7202511E-2,2.4690917E-1,-1.2187165E-1,3.566475E-1,4.702804E-2,-2.22064E-1,4.514208E-2,1.6700408E-1,-5.9235957E-2,1.1047841E0,5.820943E-1,1.2563747E0,7.024252E-1,1.9675375E0,1.1330456E0,4.010152E-1,1.116609E0,2.3879447E0,6.607809E-1],"categories":[],"categories_nodes":[],"categories_segments":[],"categories_sizes":[],"default_left":[0,0,0,0,0,0,0,0,0,0,0,0,0,0,0,0,0,0,0,0,0,0,0,0,0,0,0,0,0,0,0,0,0,0,0,0,0,0,0,0,0,0,0,0,0,0,0,0,0,0,0,0,0,0,0,0,0],"id":7,"left_children":[1,3,5,7,9,11,13,15,17,19,21,23,25,27,29,-1,31,33,35,37,-1,39,41,43,45,47,49,51,53,-1,55,-1,-1,-1,-1,-1,-1,-1,-1,-1,-1,-1,-1,-1,-1,-1,-1,-1,-1,-1,-1,-1,-1,-1,-1,-1,-1],"loss_changes":[1.3924389E4,2.8787368E3,2.8624072E3,4.5166113E2,5.225642E2,1.3996099E3,2.5014453E2,8.677539E1,1.682709E2,2.0654541E1,2.3150766E2,2.158743E1,1.916333E2,3.6981934E1,9.031738E1,0E0,6.656421E1,1.1132678E2,7.3857117E0,2.0063568E1,0E0,2.4688916E2,2.2256445E2,8.598103E0,1.0740469E1,1.25243164E2,1.8655225E2,3.8116455E1,4.6284912E1,0E0,1.6052734E1,0E0,0E0,0E0,0E0,0E0,0E0,0E0,0E0,0E0,0E0,0E0,0E0,0E0,0E0,0E0,0E0,0E0,0E0,0E0,0E0,0E0,0E0,0E0,0E0,0E0,0E0],"parents":[2147483647,0,0,1,1,2,2,3,3,4,4,5,5,6,6,7,7,8,8,9,9,10,10,11,11,12,12,13,13,14,14,16,16,17,17,18,18,19,19,21,21,22,22,23,23,24,24,25,25,26,26,27,27,28,28,30,30],"right_children":[2,4,6,8,10,12,14,16,18,20,22,24,26,28,30,-1,32,34,36,38,-1,40,42,44,46,48,50,52,54,-1,56,-1,-1,-1,-1,-1,-1,-1,-1,-1,-1,-1,-1,-1,-1,-1,-1,-1,-1,-1,-1,-1,-1,-1,-1,-1,-1],"split_conditions":[1.9666666E1,1.0666667E1,3.3666668E1,6.6666665E0,3E0,3E0,4.2666668E1,3.3333333E0,1.1E1,1.7E1,1.3666667E1,2.018E3,2.6333334E1,3.8E1,2E0,-5.07543E-1,5E0,4E0,2E0,1.6666666E1,-4.385707E-1,1E1,2E1,3.3E1,2.3E1,1.4E1,3.1E1,3.5E1,3.6E1,5.1859254E-1,7.6E1,-3.1320617E-1,-4.5058113E-1,1.2767781E-1,-1.7918716E-1,-4.6274915E-1,-1.8653667E-1,-2.706522E-1,-1.7202511E-2,2.4690917E-1,-1.2187165E-1,3.566475E-1,4.702804E-2,-2.22064E-1,4.514208E-2,1.6700408E-1,-5.9235957E-2,1.1047841E0,5.820943E-1,1.2563747E0,7.024252E-1,1.9675375E0,1.1330456E0,4.010152E-1,1.116609E0,2.3879447E0,6.607809E-1],"split_indices":[4,4,4,4,5,5,4,4,3,2,4,6,4,2,5,0,2,3,0,4,0,2,2,4,2,2,2,3,4,0,2,0,0,0,0,0,0,0,0,0,0,0,0,0,0,0,0,0,0,0,0,0,0,0,0,0,0],"split_type":[0,0,0,0,0,0,0,0,0,0,0,0,0,0,0,0,0,0,0,0,0,0,0,0,0,0,0,0,0,0,0,0,0,0,0,0,0,0,0,0,0,0,0,0,0,0,0,0,0,0,0,0,0,0,0,0,0],"sum_hessian":[7.48E2,6.05E2,1.43E2,3.98E2,2.07E2,1.1E2,3.3E1,2.78E2,1.2E2,2.8E1,1.79E2,2E1,9E1,2.2E1,1.1E1,1.08E2,1.7E2,9.7E1,2.3E1,2E1,8E0,7.4E1,1.05E2,1.2E1,8E0,5.5E1,3.5E1,1.4E1,8E0,1E0,1E1,8.8E1,8.2E1,1.3E1,8.4E1,2E1,3E0,1.6E1,4E0,2.9E1,4.5E1,7E1,3.5E1,1.1E1,1E0,2E0,6E0,6E0,4.9E1,1.7E1,1.8E1,5E0,9E0,3E0,5E0,9E0,1E0],"tree_param":{"num_deleted":"0","num_feature":"7","num_nodes":"57","size_leaf_vector":"1"}},{"base_weights":[5.6873664E-2,-1.8499342E0,8.080961E0,-3.4612465E0,5.548049E-1,5.733105E0,1.5508348E1,-4.2387424E0,-2.5335655E0,-2.9911468E0,1.1041521E0,-1.0696316E0,7.239966E0,1.1599783E1,1.8734573E1,-4.8302627E-1,-3.9222307E0,-4.5856115E-1,-2.2092214E0,-4.295704E-1,-2.0411282E0,-4.5437668E-2,2.3443513E0,-1.7959443E0,9.833463E-2,9.929377E0,6.238569E0,1.240419E0,5.683312E-1,4.926629E-1,1.9289654E0,-3.3027464E-1,-4.5992824E-1,-1.2928754E-1,-3.0254728E-1,-2.8710255E-1,-8.411385E-2,2.4684806E-1,-7.3053546E-2,6.010214E-1,1.7887895E-1,-2.1208982E-1,-5.79834E-4,1.062212E-1,-8.852097E-2,1.1817268E0,6.795563E-1,2.851581E-1,7.126592E-1],"categories":[],"categories_nodes":[],"categories_segments":[],"categories_sizes":[],"default_left":[0,0,0,0,0,0,0,0,0,0,0,0,0,0,0,0,0,0,0,0,0,0,0,0,0,0,0,0,0,0,0,0,0,0,0,0,0,0,0,0,0,0,0,0,0,0,0,0,0],"id":8,"left_children":[1,3,5,7,9,11,13,15,17,19,21,23,25,27,29,-1,31,-1,33,-1,35,37,39,41,43,45,47,-1,-1,-1,-1,-1,-1,-1,-1,-1,-1,-1,-1,-1,-1,-1,-1,-1,-1,-1,-1,-1,-1],"loss_changes":[1.1474945E4,2.3500408E3,2.4222236E3,2.5108154E2,4.7860455E2,1.1455808E3,2.1141943E2,1.7750244E1,1.0168494E2,3.2130585E1,3.0235925E2,1.7991085E1,1.831333E2,1.5169922E1,3.526465E1,0E0,4.0593018E1,0E0,1.06039856E2,0E0,1.8498306E1,1.9297638E2,1.9698352E2,7.5499954E0,9.4724245E0,5.576953E1,1.8721094E2,0E0,0E0,0E0,0E0,0E0,0E0,0E0,0E0,0E0,0E0,0E0,0E0,0E0,0E0,0E0,0E0,0E0,0E0,0E0,0E0,0E0,0E0],"parents":[2147483647,0,0,1,1,2,2,3,3,4,4,5,5,6,6,7,7,8,8,9,9,10,10,11,11,12,12,13,13,14,14,16,16,18,18,20,20,21,21,22,22,23,23,24,24,25,25,26,26],"right_children":[2,4,6,8,10,12,14,16,18,20,22,24,26,28,30,-1,32,-1,34,-1,36,38,40,42,44,46,48,-1,-1,-1,-1,-1,-1,-1,-1,-1,-1,-1,-1,-1,-1,-1,-1,-1,-1,-1,-1,-1,-1],"split_conditions":[1.9666666E1,9.333333E0,3.3666668E1,5E0,3E0,3E0,4.0333332E1,2.6666667E0,3E0,2E0,1.4E1,2.018E3,1.9E1,3.9E1,2E0,-4.8302627E-1,4E0,-4.5856115E-1,7E0,-4.295704E-1,1.5E1,5E0,1.1E1,3.7E1,2.4E1,2.5E1,2.2333334E1,1.240419E0,5.683312E-1,4.926629E-1,1.9289654E0,-3.3027464E-1,-4.5992824E-1,-1.2928754E-1,-3.0254728E-1,-2.8710255E-1,-8.411385E-2,2.4684806E-1,-7.3053546E-2,6.010214E-1,1.7887895E-1,-2.1208982E-1,-5.79834E-4,1.062212E-1,-8.852097E-2,1.1817268E0,6.795563E-1,2.851581E-1,7.126592E-1],"split_indices":[4,4,4,4,5,5,4,4,5,5,4,6,2,3,5,0,2,0,2,0,4,5,2,2,4,3,4,0,0,0,0,0,0,0,0,0,0,0,0,0,0,0,0,0,0,0,0,0,0],"split_type":[0,0,0,0,0,0,0,0,0,0,0,0,0,0,0,0,0,0,0,0,0,0,0,0,0,0,0,0,0,0,0,0,0,0,0,0,0,0,0,0,0,0,0,0,0,0,0,0,0],"sum_hessian":[7.48E2,6.05E2,1.43E2,3.62E2,2.43E2,1.1E2,3.3E1,1.95E2,1.67E2,3.2E1,2.11E2,2E1,9E1,1.7E1,1.6E1,6.3E1,1.32E2,2.1E1,1.46E2,1.2E1,2E1,1.1E2,1.01E2,1.2E1,8E0,2.2E1,6.8E1,1.4E1,3E0,1E0,1.5E1,7.2E1,6E1,7E1,7.6E1,1.1E1,9E0,2.3E1,8.7E1,1.2E1,8.9E1,1E1,2E0,4E0,4E0,1.2E1,1E1,1.5E1,5.3E1],"tree_param":{"num_deleted":"0","num_feature":"7","num_nodes":"49","size_leaf_vector":"1"}},{"base_weights":[5.7706654E-2,-2.051008E0,6.017759E0,-3.4853508E0,-4.7361013E-1,4.298742E0,1.4081936E1,-4.0634233E-1,-3.016445E0,-3.0613801E0,-7.94735E-2,-1.1888411E0,5.3014836E0,1.2123988E1,2.1198359E0,-2.4482489E0,-3.9117312E0,-3.7430236E-1,-2.3629966E0,-1.134608E0,8.8911664E-1,-2.8426597E0,-5.505626E-1,4.1920433E0,8.328452E0,1.4771202E1,7.729633E0,-1.6241638E-1,-3.1379202E-1,-4.442196E-1,-2.7453324E-1,8.377997E-3,-2.639515E-1,6.351386E-2,-1.7682396E-1,1.8086007E-1,-1.0180535E-1,-3.133453E-1,-5.4894973E-2,-1.512614E-1,-2.1551138E-2,2.737399E-1,5.364024E-1,1.2330936E0,6.53759E-1,1.9899998E0,9.191045E-1,2.947099E-1,8.869683E-1],"categories":[],"categories_nodes":[],"categories_segments":[],"categories_sizes":[],"default_left":[0,0,0,0,0,0,0,0,0,0,0,0,0,0,0,0,0,0,0,0,0,0,0,0,0,0,0,0,0,0,0,0,0,0,0,0,0,0,0,0,0,0,0,0,0,0,0,0,0],"id":9,"left_children":[1,3,5,7,9,11,13,-1,15,17,19,21,23,25,-1,27,29,-1,31,33,35,37,39,41,43,45,47,-1,-1,-1,-1,-1,-1,-1,-1,-1,-1,-1,-1,-1,-1,-1,-1,-1,-1,-1,-1,-1,-1],"loss_changes":[9.425812E3,1.2517905E3,2.6565073E3,6.635034E1,2.700395E2,9.0323096E2,2.1673291E2,0E0,7.384949E1,7.8169556E0,2.3708916E2,2.5880459E1,4.2852466E2,2.231753E2,0E0,5.344336E1,2.6166199E1,0E0,1.3752701E1,1.2559485E2,2.1402838E2,2.9488602E0,6.120744E0,1.6091248E2,1.7742969E2,3.0362964E2,4.4740417E1,0E0,0E0,0E0,0E0,0E0,0E0,0E0,0E0,0E0,0E0,0E0,0E0,0E0,0E0,0E0,0E0,0E0,0E0,0E0,0E0,0E0,0E0],"parents":[2147483647,0,0,1,1,2,2,3,3,4,4,5,5,6,6,8,8,9,9,10,10,11,11,12,12,13,13,15,15,16,16,18,18,19,19,20,20,21,21,22,22,23,23,24,24,25,25,26,26],"right_children":[2,4,6,8,10,12,14,-1,16,18,20,22,24,26,-1,28,30,-1,32,34,36,38,40,42,44,46,48,-1,-1,-1,-1,-1,-1,-1,-1,-1,-1,-1,-1,-1,-1,-1,-1,-1,-1,-1,-1,-1,-1],"split_conditions":[1.7333334E1,7E0,3.3666668E1,3.6666667E0,3E0,3E0,5.2E1,-4.0634233E-1,6E0,2E0,1.1E1,2.017E3,2.6333334E1,3.8E1,2.1198359E0,5E0,6.3333335E0,-3.7430236E-1,1.8E1,6E0,1.4E1,3.6E1,1E0,9E0,2.4E1,3.5E1,3.6E1,-1.6241638E-1,-3.1379202E-1,-4.442196E-1,-2.7453324E-1,8.377997E-3,-2.639515E-1,6.351386E-2,-1.7682396E-1,1.8086007E-1,-1.0180535E-1,-3.133453E-1,-5.4894973E-2,-1.512614E-1,-2.1551138E-2,2.737399E-1,5.364024E-1,1.2330936E0,6.53759E-1,1.9899998E0,9.191045E-1,2.947099E-1,8.869683E-1],"split_indices":[4,4,4,4,5,5,4,0,3,5,4,6,4,2,0,2,4,0,3,3,3,2,0,5,2,3,4,0,0,0,0,0,0,0,0,0,0,0,0,0,0,0,0,0,0,0,0,0,0],"split_type":[0,0,0,0,0,0,0,0,0,0,0,0,0,0,0,0,0,0,0,0,0,0,0,0,0,0,0,0,0,0,0,0,0,0,0,0,0,0,0,0,0,0,0,0,0,0,0,0,0],"sum_hessian":[7.48E2,5.53E2,1.95E2,2.89E2,2.64E2,1.62E2,3.3E1,1.26E2,1.63E2,3.4E1,2.3E2,2.5E1,1.37E2,2.8E1,5E0,1.02E2,6.1E1,1.5E1,1.9E1,1.1E2,1.2E2,6E0,1.9E1,1.02E2,3.5E1,1.6E1,1.2E1,4.8E1,5.4E1,4E1,2.1E1,2E0,1.7E1,2.9E1,8.1E1,8.1E1,3.9E1,5E0,1E0,4E0,1.5E1,4.7E1,5.5E1,9E0,2.6E1,7E0,9E0,3E0,9E0],"tree_param":{"num_deleted":"0","num_feature":"7","num_nodes":"49","size_leaf_vector":"1"}},{"base_weights":[6.008165E-2,-1.5123928E0,6.677161E0,-2.9012756E0,3.4704843E-1,4.7970147E0,1.3107765E1,-3.3680828E0,-2.0127535E0,-2.5444136E0,8.081399E-1,-8.9580196E-1,6.030909E0,1.1216946E1,1.943183E0,-3.8619524E-1,-3.0655627E0,-6.291264E-1,-2.5621536E0,-3.550309E-1,-1.8215026E0,-1.5096037E-1,1.8862898E0,-1.5329362E0,1.24036685E-1,8.38709E0,5.1826963E0,1.4082609E1,7.0475683E0,-2.4014519E-1,-3.6533806E-1,9.3280904E-2,-1.4489613E-1,-1.8251769E-1,-3.2094392E-1,-2.5935763E-1,-5.584493E-2,1.3927498E-1,-1.2359541E-1,2.8211883E-1,-9.934161E-4,-2.3614667E-1,-7.199214E-2,1.5022583E-1,-4.8434924E-2,1.0164529E0,5.524018E-1,4.217515E-1,8.000478E-1,1.8158747E0,8.246145E-1,4.1285506E-1,8.9597905E-1],"categories":[],"categories_nodes":[],"categories_segments":[],"categories_sizes":[],"default_left":[0,0,0,0,0,0,0,0,0,0,0,0,0,0,0,0,0,0,0,0,0,0,0,0,0,0,0,0,0,0,0,0,0,0,0,0,0,0,0,0,0,0,0,0,0,0,0,0,0,0,0,0,0],"id":10,"left_children":[1,3,5,7,9,11,13,15,17,19,21,23,25,27,-1,-1,29,31,33,-1,35,37,39,41,43,45,47,49,51,-1,-1,-1,-1,-1,-1,-1,-1,-1,-1,-1,-1,-1,-1,-1,-1,-1,-1,-1,-1,-1,-1,-1,-1],"loss_changes":[7.8035845E3,1.5660297E3,1.6781504E3,1.3714575E2,3.4869562E2,7.991521E2,1.646792E2,2.1926758E1,9.1128174E1,1.9711334E1,2.3294687E2,1.3835398E1,1.4239648E2,2.2334863E2,0E0,0E0,4.7831055E1,4.745065E1,3.5644226E1,0E0,2.098053E1,2.0271124E2,1.8794232E2,7.0568256E0,8.274034E0,6.0896484E1,1.5935449E2,2.0711401E2,3.557263E1,0E0,0E0,0E0,0E0,0E0,0E0,0E0,0E0,0E0,0E0,0E0,0E0,0E0,0E0,0E0,0E0,0E0,0E0,0E0,0E0,0E0,0E0,0E0,0E0],"parents":[2147483647,0,0,1,1,2,2,3,3,4,4,5,5,6,6,7,7,8,8,9,9,10,10,11,11,12,12,13,13,16,16,17,17,18,18,20,20,21,21,22,22,23,23,24,24,25,25,26,26,27,27,28,28],"right_children":[2,4,6,8,10,12,14,16,18,20,22,24,26,28,-1,-1,30,32,34,-1,36,38,40,42,44,46,48,50,52,-1,-1,-1,-1,-1,-1,-1,-1,-1,-1,-1,-1,-1,-1,-1,-1,-1,-1,-1,-1,-1,-1,-1,-1],"split_conditions":[1.9666666E1,8.666667E0,3.4E1,5.6666665E0,3E0,3E0,5.2E1,3E0,5E0,2E0,1.3666667E1,2.018E3,1.9E1,3.8E1,1.943183E0,-3.8619524E-1,4E0,7E0,7E0,-3.550309E-1,1.5E1,1E1,2E1,2.2666666E1,2.3E1,2.5E1,3.0666666E1,3.5E1,1.1E1,-2.4014519E-1,-3.6533806E-1,9.3280904E-2,-1.4489613E-1,-1.8251769E-1,-3.2094392E-1,-2.5935763E-1,-5.584493E-2,1.3927498E-1,-1.2359541E-1,2.8211883E-1,-9.934161E-4,-2.3614667E-1,-7.199214E-2,1.5022583E-1,-4.8434924E-2,1.0164529E0,5.524018E-1,4.217515E-1,8.000478E-1,1.8158747E0,8.246145E-1,4.1285506E-1,8.9597905E-1],"split_indices":[4,4,4,4,5,5,4,4,3,5,4,6,2,2,0,0,3,2,2,0,4,2,2,4,2,3,4,3,5,0,0,0,0,0,0,0,0,0,0,0,0,0,0,0,0,0,0,0,0,0,0,0,0],"split_type":[0,0,0,0,0,0,0,0,0,0,0,0,0,0,0,0,0,0,0,0,0,0,0,0,0,0,0,0,0,0,0,0,0,0,0,0,0,0,0,0,0,0,0,0,0,0,0,0,0,0,0,0,0],"sum_hessian":[7.48E2,6.05E2,1.43E2,3.46E2,2.59E2,1.12E2,3.1E1,2.25E2,1.21E2,3.5E1,2.24E2,2E1,9.2E1,2.6E1,5E0,8.1E1,1.44E2,3.5E1,8.6E1,1.3E1,2.2E1,1.19E2,1.05E2,1.2E1,8E0,2.2E1,7E1,1.4E1,1.2E1,7E1,7.4E1,1.2E1,2.3E1,4.2E1,4.4E1,1.3E1,9E0,4.9E1,7E1,7E1,3.5E1,5E0,7E0,2E0,6E0,1.2E1,1E1,5.4E1,1.6E1,7E0,7E0,6E0,6E0],"tree_param":{"num_deleted":"0","num_feature":"7","num_nodes":"53","size_leaf_vector":"1"}},{"base_weights":[6.282734E-2,-1.3347929E0,6.205871E0,-2.4123514E0,6.899987E-1,4.8247957E0,1.3736447E1,-2.8896377E0,-1.2918943E0,1.6218402E0,-1.0462143E0,-6.569155E-1,5.8082385E0,1.1349396E1,1.781251E0,-3.2252116E0,-2.4113436E0,-6.552672E-1,-2.9016383E0,1.0719956E0,4.660396E0,-2.4021935E0,-3.6269926E-2,-2.1000218E0,-1.3208567E-1,4.2555127E0,7.3691826E0,1.359755E1,5.3362145E0,-2.5886783E-1,-3.435231E-1,-1.7954358E-1,-3.3166608E-1,4.0875476E-2,-1.5921535E-1,-1.9753172E-1,-3.6152953E-1,1.7885204E-1,-7.7192E-2,6.0872716E-1,-1.1230576E-1,-1.4646564E-1,-3.3670923E-1,6.311468E-2,-3.1185386E-1,-2.3822744E-1,-4.8550606E-2,1.301581E-1,-3.274605E-2,7.8949887E-1,3.6229202E-1,9.454299E-1,5.1610297E-1,1.8276303E0,9.558479E-1,9.9179395E-2,7.2604764E-1],"categories":[],"categories_nodes":[],"categories_segments":[],"categories_sizes":[],"default_left":[0,0,0,0,0,0,0,0,0,0,0,0,0,0,0,0,0,0,0,0,0,0,0,0,0,0,0,0,0,0,0,0,0,0,0,0,0,0,0,0,0,0,0,0,0,0,0,0,0,0,0,0,0,0,0,0,0],"id":11,"left_children":[1,3,5,7,9,11,13,15,17,19,21,23,25,27,-1,29,31,33,35,37,39,41,43,45,47,49,51,53,55,-1,-1,-1,-1,-1,-1,-1,-1,-1,-1,-1,-1,-1,-1,-1,-1,-1,-1,-1,-1,-1,-1,-1,-1,-1,-1,-1,-1],"loss_changes":[6.4389297E3,1.3347634E3,1.3793647E3,2.096438E2,3.4630426E2,6.4533887E2,2.1643066E0,3.7003174E1,1.2210025E2,2.2723608E2,1.0262264E2,1.4112939E1,2.1343579E2,1.4373755E2,0E0,1.2630493E1,6.039868E1,8.8375145E1,1.5335236E1,1.5860474E2,1.8013394E2,2.401648E1,9.248319E1,1.1218967E0,4.627752E0,9.341919E1,1.768147E2,3.318225E1,4.2957916E1,0E0,0E0,0E0,0E0,0E0,0E0,0E0,0E0,0E0,0E0,0E0,0E0,0E0,0E0,0E0,0E0,0E0,0E0,0E0,0E0,0E0,0E0,0E0,0E0,0E0,0E0,0E0,0E0],"parents":[2147483647,0,0,1,1,2,2,3,3,4,4,5,5,6,6,7,7,8,8,9,9,10,10,11,11,12,12,13,13,15,15,16,16,17,17,18,18,19,19,20,20,21,21,22,22,23,23,24,24,25,25,26,26,27,27,28,28],"right_children":[2,4,6,8,10,12,14,16,18,20,22,24,26,28,-1,30,32,34,36,38,40,42,44,46,48,50,52,54,56,-1,-1,-1,-1,-1,-1,-1,-1,-1,-1,-1,-1,-1,-1,-1,-1,-1,-1,-1,-1,-1,-1,-1,-1,-1,-1,-1,-1],"split_conditions":[2.0333334E1,1.0666667E1,3.6333332E1,6.6666665E0,1.6E1,3E0,5.2E1,4.3333335E0,1E1,1.7666666E1,1.5666667E1,2.017E3,2.6333334E1,5.2E1,1.781251E0,2E0,6E0,9E0,8E0,1.8E1,2.3E1,1.2E1,2.1E1,3.6E1,2.4E1,1.4E1,3.1E1,1E1,4.8666668E1,-2.5886783E-1,-3.435231E-1,-1.7954358E-1,-3.3166608E-1,4.0875476E-2,-1.5921535E-1,-1.9753172E-1,-3.6152953E-1,1.7885204E-1,-7.7192E-2,6.0872716E-1,-1.1230576E-1,-1.4646564E-1,-3.3670923E-1,6.311468E-2,-3.1185386E-1,-2.3822744E-1,-4.8550606E-2,1.301581E-1,-3.274605E-2,7.8949887E-1,3.6229202E-1,9.454299E-1,5.1610297E-1,1.8276303E0,9.558479E-1,9.9179395E-2,7.2604764E-1],"split_indices":[4,4,4,4,3,5,4,4,3,4,4,6,4,2,0,3,3,2,2,2,2,2,2,2,3,2,2,5,4,0,0,0,0,0,0,0,0,0,0,0,0,0,0,0,0,0,0,0,0,0,0,0,0,0,0,0,0],"split_type":[0,0,0,0,0,0,0,0,0,0,0,0,0,0,0,0,0,0,0,0,0,0,0,0,0,0,0,0,0,0,0,0,0,0,0,0,0,0,0,0,0,0,0,0,0,0,0,0,0,0,0,0,0,0,0,0,0],"sum_hessian":[7.48E2,6.1E2,1.38E2,3.98E2,2.12E2,1.18E2,2E1,2.78E2,1.2E2,1.38E2,7.4E1,1.8E1,1E2,1.5E1,5E0,1.6E2,1.18E2,8.7E1,3.3E1,1.18E2,2E1,3.1E1,4.3E1,4E0,1.4E1,5.2E1,4.8E1,1E1,5E0,4.3E1,1.17E2,7.2E1,4.6E1,4.1E1,4.6E1,1.6E1,1.7E1,8.5E1,3.3E1,1.6E1,4E0,1.7E1,1.4E1,3.6E1,7E0,3E0,1E0,1E0,1.3E1,6E0,4.6E1,2.3E1,2.5E1,3E0,7E0,2E0,3E0],"tree_param":{"num_deleted":"0","num_feature":"7","num_nodes":"57","size_leaf_vector":"1"}},{"base_weights":[6.440716E-2,-1.5819552E0,4.382815E0,-2.4983363E0,-3.4276178E-1,2.9958272E0,1.0280714E1,-2.861676E0,-1.981194E0,2.9083213E-1,-2.0847263E0,-1.0607551E0,3.7408054E0,7.9630303E0,1.3850647E1,-2.62196E0,-3.3631713E0,-1.7216564E0,-3.5292846E-1,-4.481803E-1,1.9906524E0,-3.5312983E-1,-1.8364117E0,-1.7569251E0,-4.4132154E-2,1.9055581E0,4.591484E0,8.517468E0,8.7317973E-1,3.6673623E-1,1.4351872E0,-3.2363763E-1,-2.0234323E-1,-2.4165006E-1,-3.5986528E-1,-4.464605E-2,-2.251412E-1,1.5459983E-1,-9.892378E-2,4.372603E-1,1.08455084E-1,-1.5328535E-1,-3.0491382E-1,-2.2321315E-1,-8.270694E-2,-1.4885128E-1,6.0271837E-2,2.3731275E-1,-1.6850196E-1,6.542942E-1,3.7847117E-1,9.5382464E-1,3.8654277E-1,-5.922604E-3,1.3689958E-1],"categories":[],"categories_nodes":[],"categories_segments":[],"categories_sizes":[],"default_left":[0,0,0,0,0,0,0,0,0,0,0,0,0,0,0,0,0,0,0,0,0,0,0,0,0,0,0,0,0,0,0,0,0,0,0,0,0,0,0,0,0,0,0,0,0,0,0,0,0,0,0,0,0,0,0],"id":12,"left_children":[1,3,5,7,9,11,13,15,17,19,21,23,25,27,29,31,33,35,-1,37,39,-1,41,43,45,47,49,51,53,-1,-1,-1,-1,-1,-1,-1,-1,-1,-1,-1,-1,-1,-1,-1,-1,-1,-1,-1,-1,-1,-1,-1,-1,-1,-1],"loss_changes":[5.332072E3,6.1576013E2,1.6625254E3,5.2954712E1,2.5666425E2,5.1469727E2,2.123916E2,1.294104E1,4.6959778E1,2.157004E2,1.5785797E1,1.903151E1,2.1450305E2,9.476587E1,1.8824463E1,4.015503E1,3.5646362E0,7.668219E1,0E0,1.3100519E2,1.0748874E2,0E0,1.5573425E1,5.2238464E0,1.2108733E1,8.29044E1,1.2795203E2,7.709924E1,1.4679849E0,0E0,0E0,0E0,0E0,0E0,0E0,0E0,0E0,0E0,0E0,0E0,0E0,0E0,0E0,0E0,0E0,0E0,0E0,0E0,0E0,0E0,0E0,0E0,0E0,0E0,0E0],"parents":[2147483647,0,0,1,1,2,2,3,3,4,4,5,5,6,6,7,7,8,8,9,9,10,10,11,11,12,12,13,13,14,14,15,15,16,16,17,17,19,19,20,20,22,22,23,23,24,24,25,25,26,26,27,27,28,28],"right_children":[2,4,6,8,10,12,14,16,18,20,22,24,26,28,30,32,34,36,-1,38,40,-1,42,44,46,48,50,52,54,-1,-1,-1,-1,-1,-1,-1,-1,-1,-1,-1,-1,-1,-1,-1,-1,-1,-1,-1,-1,-1,-1,-1,-1,-1,-1],"split_conditions":[1.6333334E1,7.6666665E0,3.3E1,4.6666665E0,1.4E1,3E0,4.1666668E1,4E0,9E0,1.2333333E1,1.0666667E1,2.018E3,1.9333334E1,5.2E1,2E0,2.6666667E0,2E0,5E0,-3.5292846E-1,6E0,1.2E1,-3.5312983E-1,1.8E1,2.2666666E1,1E0,2.5E1,1.9E1,3.9E1,5.4E1,3.6673623E-1,1.4351872E0,-3.2363763E-1,-2.0234323E-1,-2.4165006E-1,-3.5986528E-1,-4.464605E-2,-2.251412E-1,1.5459983E-1,-9.892378E-2,4.372603E-1,1.08455084E-1,-1.5328535E-1,-3.0491382E-1,-2.2321315E-1,-8.270694E-2,-1.4885128E-1,6.0271837E-2,2.3731275E-1,-1.6850196E-1,6.542942E-1,3.7847117E-1,9.5382464E-1,3.8654277E-1,-5.922604E-3,1.3689958E-1],"split_indices":[4,4,4,4,3,5,4,2,3,4,4,6,4,2,5,4,3,2,0,3,2,0,2,4,0,2,2,3,2,0,0,0,0,0,0,0,0,0,0,0,0,0,0,0,0,0,0,0,0,0,0,0,0,0,0],"split_type":[0,0,0,0,0,0,0,0,0,0,0,0,0,0,0,0,0,0,0,0,0,0,0,0,0,0,0,0,0,0,0,0,0,0,0,0,0,0,0,0,0,0,0,0,0,0,0,0,0,0,0,0,0,0,0],"sum_hessian":[7.48E2,5.42E2,2.06E2,3.11E2,2.31E2,1.68E2,3.8E1,1.8E2,1.31E2,1.7E2,6.1E1,2.6E1,1.42E2,2.5E1,1.3E1,1.26E2,5.4E1,1.14E2,1.7E1,1.19E2,5.1E1,7E0,5.4E1,1.5E1,1.1E1,4.6E1,9.6E1,2.3E1,2E0,1E0,1.2E1,6E1,6.6E1,1.3E1,4.1E1,3.4E1,8E1,2.5E1,9.4E1,1.3E1,3.8E1,4.5E1,9E0,9E0,6E0,3E0,8E0,4.1E1,5E0,2.6E1,7E1,1.8E1,5E0,1E0,1E0],"tree_param":{"num_deleted":"0","num_feature":"7","num_nodes":"55","size_leaf_vector":"1"}},{"base_weights":[6.066362E-2,-1.09026E0,5.1193233E0,-2.0641975E0,4.135618E-1,3.945031E0,1.1529869E1,-2.4575756E0,-1.3160307E0,1.0857605E0,-1.0322349E0,-5.7454365E-1,4.7561884E0,9.4584E0,1.5132145E0,-2.1739802E0,-2.8662312E0,-8.395541E-1,-2.6911426E0,2.6212788E-1,2.8213212E0,-2.1451035E0,-1.488311E-1,-1.8250068E0,-1.1941967E-1,3.6111805E0,6.412046E0,1.2660978E1,5.56073E0,-2.5175723E-1,-1.0025555E-1,-2.581675E-1,-3.7595662E-1,4.1940507E-2,-1.4283173E-1,-1.882677E-1,-3.5357895E-1,1.6530947E-1,-4.3680463E-2,5.615954E-1,4.915713E-2,-1.2897368E-1,-3.026783E-1,9.101348E-2,-1.7290117E-1,-2.0713201E-1,-4.1987706E-2,6.6015325E-2,-4.6291467E-2,4.554257E-1,5.2471026E-3,6.907875E-1,2.2261953E-2,1.5100373E0,6.4464915E-1,6.353534E-1,1.8572776E-1],"categories":[],"categories_nodes":[],"categories_segments":[],"categories_sizes":[],"default_left":[0,0,0,0,0,0,0,0,0,0,0,0,0,0,0,0,0,0,0,0,0,0,0,0,0,0,0,0,0,0,0,0,0,0,0,0,0,0,0,0,0,0,0,0,0,0,0,0,0,0,0,0,0,0,0,0,0],"id":13,"left_children":[1,3,5,7,9,11,13,15,17,19,21,23,25,27,-1,29,31,33,35,37,39,41,43,45,47,49,51,53,55,-1,-1,-1,-1,-1,-1,-1,-1,-1,-1,-1,-1,-1,-1,-1,-1,-1,-1,-1,-1,-1,-1,-1,-1,-1,-1,-1,-1],"loss_changes":[4.366358E3,8.9574164E2,1.0008865E3,1.0595569E2,2.3533968E2,4.389967E2,1.3576172E1,2.1814941E1,8.2917755E1,2.3512212E2,7.538039E1,1.0595259E1,1.6833813E2,1.2931714E2,0E0,5.6642334E1,1.4697632E1,7.323946E1,1.5877884E1,1.1057977E2,3.423115E2,2.1737656E1,7.5201355E1,8.6081123E-1,4.3222847E0,2.0784143E2,1.2121802E2,2.3932251E1,1.4624725E1,0E0,0E0,0E0,0E0,0E0,0E0,0E0,0E0,0E0,0E0,0E0,0E0,0E0,0E0,0E0,0E0,0E0,0E0,0E0,0E0,0E0,0E0,0E0,0E0,0E0,0E0,0E0,0E0],"parents":[2147483647,0,0,1,1,2,2,3,3,4,4,5,5,6,6,7,7,8,8,9,9,10,10,11,11,12,12,13,13,15,15,16,16,17,17,18,18,19,19,20,20,21,21,22,22,23,23,24,24,25,25,26,26,27,27,28,28],"right_children":[2,4,6,8,10,12,14,16,18,20,22,24,26,28,-1,30,32,34,36,38,40,42,44,46,48,50,52,54,56,-1,-1,-1,-1,-1,-1,-1,-1,-1,-1,-1,-1,-1,-1,-1,-1,-1,-1,-1,-1,-1,-1,-1,-1,-1,-1,-1,-1],"split_conditions":[2.0333334E1,9.666667E0,3.6333332E1,6E0,1.6E1,3E0,5.2E1,4E0,9E0,1.4666667E1,1.5666667E1,2.017E3,2.8E1,3.6E1,1.5132145E0,4E0,6E0,7E0,7E0,1E1,1.9E1,1.2E1,1.7E1,3.6E1,3E1,3E1,4.8E1,3.5E1,3.2E1,-2.5175723E-1,-1.0025555E-1,-2.581675E-1,-3.7595662E-1,4.1940507E-2,-1.4283173E-1,-1.882677E-1,-3.5357895E-1,1.6530947E-1,-4.3680463E-2,5.615954E-1,4.915713E-2,-1.2897368E-1,-3.026783E-1,9.101348E-2,-1.7290117E-1,-2.0713201E-1,-4.1987706E-2,6.6015325E-2,-4.6291467E-2,4.554257E-1,5.2471026E-3,6.907875E-1,2.2261953E-2,1.5100373E0,6.4464915E-1,6.353534E-1,1.8572776E-1],"split_indices":[4,4,4,4,3,5,4,2,3,4,4,6,4,2,0,4,3,2,2,2,2,2,2,2,3,2,2,3,3,0,0,0,0,0,0,0,0,0,0,0,0,0,0,0,0,0,0,0,0,0,0,0,0,0,0,0,0],"split_type":[0,0,0,0,0,0,0,0,0,0,0,0,0,0,0,0,0,0,0,0,0,0,0,0,0,0,0,0,0,0,0,0,0,0,0,0,0,0,0,0,0,0,0,0,0,0,0,0,0,0,0,0,0,0,0,0,0],"sum_hessian":[7.48E2,6.1E2,1.38E2,3.7E2,2.4E2,1.18E2,2E1,2.41E2,1.29E2,1.64E2,7.6E1,1.8E1,1E2,1.5E1,5E0,1.46E2,9.5E1,9.7E1,3.2E1,1.12E2,5.2E1,3.3E1,4.3E1,4E0,1.4E1,6.1E1,3.9E1,7E0,8E0,1.12E2,3.4E1,7.5E1,2E1,3.1E1,6.6E1,1.8E1,1.4E1,3.7E1,7.5E1,2.3E1,2.9E1,1.8E1,1.5E1,2.6E1,1.7E1,3E0,1E0,4E0,1E1,4.8E1,1.3E1,3.6E1,3E0,4E0,3E0,6E0,2E0],"tree_param":{"num_deleted":"0","num_feature":"7","num_nodes":"57","size_leaf_vector":"1"}},{"base_weights":[5.996874E-2,-1.2933499E0,3.6096885E0,-2.045484E0,-2.7628428E-1,2.4447515E0,8.565193E0,-3.0730048E-1,-1.908762E0,2.741014E-1,-1.7898273E0,-9.400845E-1,3.0667503E0,6.259352E0,1.11810255E1,-2.3144286E0,-1.4222602E0,-1.5873994E-1,2.3990052E0,-3.0922925E0,-1.5678356E0,-1.5596039E0,-3.5718203E-2,2.1955411E0,4.4207664E0,6.9540257E0,2.3677223E0,1.1471748E1,3.2647306E-1,-2.0055841E-1,-2.7090934E-1,-7.106811E-2,-2.0307247E-1,1.003947E-1,-1.06109224E-1,3.9053878E-1,7.326888E-2,-1.5991138E-1,-3.668377E-1,-1.2915605E-1,-2.681917E-1,-1.99824E-1,-7.101804E-2,1.12635635E-1,-7.5755E-2,2.9693857E-1,-6.226923E-2,5.324046E-1,2.0884922E-1,8.215995E-1,2.8504285E-1,3.4395906E-1,5.0661344E-2,3.3911306E-1,1.1784381E0],"categories":[],"categories_nodes":[],"categories_segments":[],"categories_sizes":[],"default_left":[0,0,0,0,0,0,0,0,0,0,0,0,0,0,0,0,0,0,0,0,0,0,0,0,0,0,0,0,0,0,0,0,0,0,0,0,0,0,0,0,0,0,0,0,0,0,0,0,0,0,0,0,0,0,0],"id":14,"left_children":[1,3,5,7,9,11,13,-1,15,17,19,21,23,25,27,29,31,33,35,37,39,41,43,45,47,49,51,53,-1,-1,-1,-1,-1,-1,-1,-1,-1,-1,-1,-1,-1,-1,-1,-1,-1,-1,-1,-1,-1,-1,-1,-1,-1,-1,-1],"loss_changes":[3.6027913E3,4.1481335E2,1.1740403E3,3.79657E1,1.9375412E2,3.586894E2,1.6524976E2,0E0,5.1573547E1,1.5765741E2,1.3078262E1,1.507165E1,1.5898132E2,4.5713257E1,1.6726074E0,1.2850159E1,5.4410034E1,1.5109418E2,6.993175E1,1.0154343E0,1.3464752E1,4.5422974E0,1.0919139E1,1.9594687E2,1.0474902E2,7.497455E1,8.231773E0,4.5776367E-1,0E0,0E0,0E0,0E0,0E0,0E0,0E0,0E0,0E0,0E0,0E0,0E0,0E0,0E0,0E0,0E0,0E0,0E0,0E0,0E0,0E0,0E0,0E0,0E0,0E0,0E0,0E0],"parents":[2147483647,0,0,1,1,2,2,3,3,4,4,5,5,6,6,8,8,9,9,10,10,11,11,12,12,13,13,14,14,15,15,16,16,17,17,18,18,19,19,20,20,21,21,22,22,23,23,24,24,25,25,26,26,27,27],"right_children":[2,4,6,8,10,12,14,-1,16,18,20,22,24,26,28,30,32,34,36,38,40,42,44,46,48,50,52,54,-1,-1,-1,-1,-1,-1,-1,-1,-1,-1,-1,-1,-1,-1,-1,-1,-1,-1,-1,-1,-1,-1,-1,-1,-1,-1,-1],"split_conditions":[1.6333334E1,7.6666665E0,3.3E1,3E0,1.4E1,3E0,4.0333332E1,-3.0730048E-1,4.3333335E0,1.3666667E1,1.0666667E1,2.018E3,2.3E1,3.9E1,7.6E1,3E0,6E0,1E1,1.6E1,8E0,1.8E1,2.2666666E1,2.3E1,2.3E1,2.7E1,4.3E1,3E0,2E0,3.2647306E-1,-2.0055841E-1,-2.7090934E-1,-7.106811E-2,-2.0307247E-1,1.003947E-1,-1.06109224E-1,3.9053878E-1,7.326888E-2,-1.5991138E-1,-3.668377E-1,-1.2915605E-1,-2.681917E-1,-1.99824E-1,-7.101804E-2,1.12635635E-1,-7.5755E-2,2.9693857E-1,-6.226923E-2,5.324046E-1,2.0884922E-1,8.215995E-1,2.8504285E-1,3.4395906E-1,5.0661344E-2,3.3911306E-1,1.1784381E0],"split_indices":[4,4,4,5,3,5,4,0,4,4,4,6,4,3,2,3,2,2,2,2,2,4,2,2,3,2,1,5,0,0,0,0,0,0,0,0,0,0,0,0,0,0,0,0,0,0,0,0,0,0,0,0,0,0,0],"split_type":[0,0,0,0,0,0,0,0,0,0,0,0,0,0,0,0,0,0,0,0,0,0,0,0,0,0,0,0,0,0,0,0,0,0,0,0,0,0,0,0,0,0,0,0,0,0,0,0,0,0,0,0,0,0,0],"sum_hessian":[7.48E2,5.42E2,2.06E2,3.11E2,2.31E2,1.68E2,3.8E1,3.4E1,2.77E2,1.7E2,6.1E1,2.6E1,1.42E2,2.2E1,1.6E1,1.49E2,1.28E2,1.42E2,2.8E1,7E0,5.4E1,1.5E1,1.1E1,8.8E1,5.4E1,1.8E1,4E0,1.5E1,1E0,8.7E1,6.2E1,6E1,6.8E1,6.2E1,8E1,1.4E1,1.4E1,3E0,4E0,4.5E1,9E0,9E0,6E0,4E0,7E0,6.9E1,1.9E1,3.8E1,1.6E1,1.3E1,5E0,2E0,2E0,1E0,1.4E1],"tree_param":{"num_deleted":"0","num_feature":"7","num_nodes":"55","size_leaf_vector":"1"}},{"base_weights":[5.7401057E-2,-9.1325885E-1,4.141863E0,-1.751898E0,2.4016158E-1,3.1725943E0,9.667931E0,-2.0398204E0,-1.2215618E0,-1.6972454E0,5.546706E-1,-5.870867E-1,3.901255E0,7.855746E0,1.2889103E0,-1.9170442E0,-2.8737262E-1,-2.3580523E-1,-1.7854242E0,-2.3949967E-1,-1.1987339E0,2.0269897E0,2.0804794E-1,-1.0489461E0,1.4527543E-1,2.78864E0,5.0931973E0,1.2435171E1,5.2930064E0,-2.293237E-1,-1.4595616E-1,1.1104472E-1,-8.405925E-2,-1.0852064E-1,-2.5307915E-1,-1.7869052E-1,-2.5542086E-2,2.590403E-1,-3.4972E-3,-5.149865E-2,1.18191205E-1,-1.4893532E-1,-2.8691236E-2,1.3325106E-1,-3.842933E-2,4.4279584E-1,1.5119043E-1,6.959166E-1,3.174873E-1,1.3933177E0,3.2215738E-1,1.0574923E-1,6.587345E-1],"categories":[],"categories_nodes":[],"categories_segments":[],"categories_sizes":[],"default_left":[0,0,0,0,0,0,0,0,0,0,0,0,0,0,0,0,0,0,0,0,0,0,0,0,0,0,0,0,0,0,0,0,0,0,0,0,0,0,0,0,0,0,0,0,0,0,0,0,0,0,0,0,0],"id":15,"left_children":[1,3,5,7,9,11,13,15,17,19,21,23,25,27,-1,29,-1,31,33,-1,35,37,39,41,43,45,47,49,51,-1,-1,-1,-1,-1,-1,-1,-1,-1,-1,-1,-1,-1,-1,-1,-1,-1,-1,-1,-1,-1,-1,-1,-1],"loss_changes":[2.9732854E3,5.8660675E2,7.406267E2,5.1104492E1,1.5693039E2,3.419922E2,2.1331055E1,1.76297E1,6.961374E1,9.651169E0,1.1236325E2,7.255601E0,1.2371887E2,1.2195453E2,0E0,3.1073181E1,0E0,3.920066E1,3.900711E1,0E0,1.2304665E1,4.8883514E1,1.2735339E2,3.9355516E0,6.170578E0,1.10512054E2,1.5330273E2,2.4123413E1,5.882019E1,0E0,0E0,0E0,0E0,0E0,0E0,0E0,0E0,0E0,0E0,0E0,0E0,0E0,0E0,0E0,0E0,0E0,0E0,0E0,0E0,0E0,0E0,0E0,0E0],"parents":[2147483647,0,0,1,1,2,2,3,3,4,4,5,5,6,6,7,7,8,8,9,9,10,10,11,11,12,12,13,13,15,15,17,17,18,18,20,20,21,21,22,22,23,23,24,24,25,25,26,26,27,27,28,28],"right_children":[2,4,6,8,10,12,14,16,18,20,22,24,26,28,-1,30,-1,32,34,-1,36,38,40,42,44,46,48,50,52,-1,-1,-1,-1,-1,-1,-1,-1,-1,-1,-1,-1,-1,-1,-1,-1,-1,-1,-1,-1,-1,-1,-1,-1],"split_conditions":[1.9666666E1,9E0,3.6333332E1,5.6666665E0,3E0,3E0,5.2E1,6E0,6E0,2E0,5E0,2.018E3,2.6333334E1,1E1,1.2889103E0,3.3333333E0,-2.8737262E-1,7E0,7E0,-2.3949967E-1,1.5E1,1.9E1,9E0,3.1E1,3E1,1.8E1,3.1E1,3.6E1,1.1E1,-2.293237E-1,-1.4595616E-1,1.1104472E-1,-8.405925E-2,-1.0852064E-1,-2.5307915E-1,-1.7869052E-1,-2.5542086E-2,2.590403E-1,-3.4972E-3,-5.149865E-2,1.18191205E-1,-1.4893532E-1,-2.8691236E-2,1.3325106E-1,-3.842933E-2,4.4279584E-1,1.5119043E-1,6.959166E-1,3.174873E-1,1.3933177E0,3.2215738E-1,1.0574923E-1,6.587345E-1],"split_indices":[4,4,4,4,5,5,4,3,3,5,5,6,4,5,0,4,0,2,2,0,4,2,5,2,3,3,2,2,5,0,0,0,0,0,0,0,0,0,0,0,0,0,0,0,0,0,0,0,0,0,0,0,0],"split_type":[0,0,0,0,0,0,0,0,0,0,0,0,0,0,0,0,0,0,0,0,0,0,0,0,0,0,0,0,0,0,0,0,0,0,0,0,0,0,0,0,0,0,0,0,0,0,0,0,0,0,0,0,0],"sum_hessian":[7.48E2,6.05E2,1.43E2,3.5E2,2.55E2,1.23E2,2E1,2.25E2,1.25E2,3.5E1,2.2E2,2E1,1.03E2,1.5E1,5E0,1.99E2,2.6E1,4.6E1,7.9E1,1.3E1,2.2E1,4.1E1,1.79E2,1.2E1,8E0,5.5E1,4.8E1,4E0,1.1E1,1.07E2,9.2E1,1.4E1,3.2E1,4.2E1,3.7E1,1.3E1,9E0,3.2E1,9E0,1.03E2,7.6E1,7E0,5E0,2E0,6E0,2.3E1,3.2E1,2.3E1,2.5E1,3E0,1E0,3E0,8E0],"tree_param":{"num_deleted":"0","num_feature":"7","num_nodes":"53","size_leaf_vector":"1"}},{"base_weights":[5.7234656E-2,-1.0639334E0,2.9979932E0,-1.7304976E0,-2.9870686E-1,2.122274E0,7.720762E0,-2.5884483E0,-1.610261E0,1.0577202E-1,-1.5529926E0,-7.4027026E-1,2.6459582E0,5.9155116E0,1.0236553E1,-1.2785888E0,-2.6739642E-1,-7.189347E-1,-1.7475469E0,-4.419197E-1,1.4202982E0,-2.018946E0,-1.0530692E0,-1.8389577E0,-3.5703924E-1,2.046393E0,4.343468E0,7.2120466E0,3.3854594E0,1.0972008E1,4.372854E-1,-1.6089374E-1,-1.4377141E-2,-1.7096181E-1,-3.7482455E-2,-2.1037455E-1,-1.4272468E-1,6.3798934E-2,-1.1100757E-1,3.293993E-1,6.7269325E-2,-7.2434716E-2,-3.3515617E-1,3.0132567E-3,-1.7957932E-1,-2.6293755E-2,-2.0578049E-1,-7.2380506E-2,2.5315646E-2,3.130294E-1,7.807236E-2,7.5127596E-1,2.9432654E-1,9.836058E-1,4.3425328E-1,4.8202333E-1,3.869338E-2,3.0604956E-1,1.151101E0],"categories":[],"categories_nodes":[],"categories_segments":[],"categories_sizes":[],"default_left":[0,0,0,0,0,0,0,0,0,0,0,0,0,0,0,0,0,0,0,0,0,0,0,0,0,0,0,0,0,0,0,0,0,0,0,0,0,0,0,0,0,0,0,0,0,0,0,0,0,0,0,0,0,0,0,0,0,0,0],"id":16,"left_children":[1,3,5,7,9,11,13,15,17,19,21,23,25,27,29,31,-1,33,35,37,39,41,43,45,47,49,51,53,55,57,-1,-1,-1,-1,-1,-1,-1,-1,-1,-1,-1,-1,-1,-1,-1,-1,-1,-1,-1,-1,-1,-1,-1,-1,-1,-1,-1,-1,-1],"loss_changes":[2.472706E3,2.764525E2,8.397289E2,2.5747437E1,1.2902661E2,2.6579492E2,8.477783E1,3.8955688E-1,3.0191833E1,1.3957901E2,1.2316238E1,1.1132853E1,1.4275903E2,4.4470276E1,3.770752E0,1.2682223E0,0E0,1.1631748E1,2.2325562E1,9.956024E1,7.76288E1,5.105358E1,2.5798748E1,1.8732777E0,5.1068125E0,1.512045E2,1.4651862E2,5.5171875E1,3.685475E1,7.4138184E0,0E0,0E0,0E0,0E0,0E0,0E0,0E0,0E0,0E0,0E0,0E0,0E0,0E0,0E0,0E0,0E0,0E0,0E0,0E0,0E0,0E0,0E0,0E0,0E0,0E0,0E0,0E0,0E0,0E0],"parents":[2147483647,0,0,1,1,2,2,3,3,4,4,5,5,6,6,7,7,8,8,9,9,10,10,11,11,12,12,13,13,14,14,15,15,17,17,18,18,19,19,20,20,21,21,22,22,23,23,24,24,25,25,26,26,27,27,28,28,29,29],"right_children":[2,4,6,8,10,12,14,16,18,20,22,24,26,28,30,32,-1,34,36,38,40,42,44,46,48,50,52,54,56,58,-1,-1,-1,-1,-1,-1,-1,-1,-1,-1,-1,-1,-1,-1,-1,-1,-1,-1,-1,-1,-1,-1,-1,-1,-1,-1,-1,-1,-1],"split_conditions":[1.6333334E1,7E0,3.4E1,3E0,1.4E1,3E0,4.2666668E1,2E0,4E0,1.2E1,1.4E1,2.017E3,2.6333334E1,3.8E1,6.5E1,8E0,-2.6739642E-1,2.6666667E0,3.6666667E0,9E0,1.2E1,8E0,1.5E1,1.1E1,1E1,1.8E1,2.4E1,3.5E1,2.9E1,2E0,4.372854E-1,-1.6089374E-1,-1.4377141E-2,-1.7096181E-1,-3.7482455E-2,-2.1037455E-1,-1.4272468E-1,6.3798934E-2,-1.1100757E-1,3.293993E-1,6.7269325E-2,-7.2434716E-2,-3.3515617E-1,3.0132567E-3,-1.7957932E-1,-2.6293755E-2,-2.0578049E-1,-7.2380506E-2,2.5315646E-2,3.130294E-1,7.807236E-2,7.5127596E-1,2.9432654E-1,9.836058E-1,4.3425328E-1,4.8202333E-1,3.869338E-2,3.0604956E-1,1.151101E0],"split_indices":[4,4,4,5,3,5,4,2,5,4,4,6,4,2,2,1,0,4,4,2,2,2,2,2,1,3,2,3,3,5,0,0,0,0,0,0,0,0,0,0,0,0,0,0,0,0,0,0,0,0,0,0,0,0,0,0,0,0,0],"split_type":[0,0,0,0,0,0,0,0,0,0,0,0,0,0,0,0,0,0,0,0,0,0,0,0,0,0,0,0,0,0,0,0,0,0,0,0,0,0,0,0,0,0,0,0,0,0,0,0,0,0,0,0,0,0,0,0,0,0,0],"sum_hessian":[7.48E2,5.42E2,2.06E2,2.89E2,2.53E2,1.75E2,3.1E1,3.3E1,2.56E2,1.92E2,6.1E1,2.7E1,1.48E2,2E1,1.1E1,3E0,3E1,3.5E1,2.21E2,1.36E2,5.6E1,3E1,3.1E1,6E0,2.1E1,1.11E2,3.7E1,1.2E1,8E0,9E0,2E0,2E0,1E0,8E0,2.7E1,1.02E2,1.19E2,5.2E1,8.4E1,1.5E1,4.1E1,1.6E1,1.4E1,1.3E1,1.8E1,1E0,5E0,1.3E1,8E0,5.9E1,5.2E1,1E1,2.7E1,5E0,7E0,5E0,3E0,1E0,8E0],"tree_param":{"num_deleted":"0","num_feature":"7","num_nodes":"59","size_leaf_vector":"1"}},{"base_weights":[5.652007E-2,-7.5084436E-1,3.4537861E0,-1.3365314E0,3.7627095E-1,2.629005E0,8.159457E0,-1.613827E0,-7.944493E-1,1.1507069E0,-4.8801413E-1,-4.7054327E-1,3.2295964E0,6.6383777E0,1.085576E0,-1.4192643E0,-2.1102462E0,1.0678754E0,-1.1408001E0,3.620144E-1,2.1618927E0,-1.2241356E0,4.2253467E-1,-8.7240154E-1,1.6220124E-1,2.586557E0,4.8034377E0,1.0816378E1,4.344346E0,-2.048903E-1,-1.0958835E-1,-2.2451618E-1,-9.1637544E-2,2.1525097E-1,1.51397055E-2,-7.866269E-2,-2.3365293E-1,2.1624398E-1,-6.5680996E-2,3.537904E-1,5.12406E-2,-1.0128736E-1,-2.3386908E-1,1.0355713E-1,-2.1446753E-1,-1.2867759E-1,-1.7450206E-2,1.2593648E-1,-3.311833E-2,3.5150495E-1,-3.8392257E-2,6.748337E-1,3.0336067E-1,1.2066737E0,2.9074708E-1,5.7140972E-2,5.538501E-1],"categories":[],"categories_nodes":[],"categories_segments":[],"categories_sizes":[],"default_left":[0,0,0,0,0,0,0,0,0,0,0,0,0,0,0,0,0,0,0,0,0,0,0,0,0,0,0,0,0,0,0,0,0,0,0,0,0,0,0,0,0,0,0,0,0,0,0,0,0,0,0,0,0,0,0,0,0],"id":17,"left_children":[1,3,5,7,9,11,13,15,17,19,21,23,25,27,-1,29,31,33,35,37,39,41,43,45,47,49,51,53,55,-1,-1,-1,-1,-1,-1,-1,-1,-1,-1,-1,-1,-1,-1,-1,-1,-1,-1,-1,-1,-1,-1,-1,-1,-1,-1,-1,-1],"loss_changes":[2.0569746E3,4.0054587E2,5.374341E2,5.8694336E1,1.397829E2,2.3235345E2,1.40625E1,2.2406738E1,8.958567E1,8.694397E1,6.687443E1,5.4812512E0,9.282788E1,1.0636133E2,0E0,3.684836E1,9.539734E0,2.1543083E1,4.728746E1,1.1698229E2,1.0713336E2,1.0581673E1,7.304167E1,3.5349464E0,5.2889924E0,2.1096268E2,7.935034E1,1.4361206E1,5.090091E1,0E0,0E0,0E0,0E0,0E0,0E0,0E0,0E0,0E0,0E0,0E0,0E0,0E0,0E0,0E0,0E0,0E0,0E0,0E0,0E0,0E0,0E0,0E0,0E0,0E0,0E0,0E0,0E0],"parents":[2147483647,0,0,1,1,2,2,3,3,4,4,5,5,6,6,7,7,8,8,9,9,10,10,11,11,12,12,13,13,15,15,16,16,17,17,18,18,19,19,20,20,21,21,22,22,23,23,24,24,25,25,26,26,27,27,28,28],"right_children":[2,4,6,8,10,12,14,16,18,20,22,24,26,28,-1,30,32,34,36,38,40,42,44,46,48,50,52,54,56,-1,-1,-1,-1,-1,-1,-1,-1,-1,-1,-1,-1,-1,-1,-1,-1,-1,-1,-1,-1,-1,-1,-1,-1,-1,-1,-1,-1],"split_conditions":[1.9666666E1,1.0666667E1,3.6333332E1,6.3333335E0,1.4E1,3E0,5.2E1,5E0,5E0,1.3666667E1,1.6333334E1,2.018E3,3.0666666E1,1E1,1.085576E0,2.6666667E0,1.1E1,9E0,1.1E1,1E1,1.9E1,2.1E1,2.2E1,3.1E1,3E1,3E1,2.7E1,3.6E1,1.1E1,-2.048903E-1,-1.0958835E-1,-2.2451618E-1,-9.1637544E-2,2.1525097E-1,1.51397055E-2,-7.866269E-2,-2.3365293E-1,2.1624398E-1,-6.5680996E-2,3.537904E-1,5.12406E-2,-1.0128736E-1,-2.3386908E-1,1.0355713E-1,-2.1446753E-1,-1.2867759E-1,-1.7450206E-2,1.2593648E-1,-3.311833E-2,3.5150495E-1,-3.8392257E-2,6.748337E-1,3.0336067E-1,1.2066737E0,2.9074708E-1,5.7140972E-2,5.538501E-1],"split_indices":[4,4,4,4,3,5,4,3,3,4,4,6,4,5,0,4,5,2,3,2,2,2,2,2,3,2,3,2,5,0,0,0,0,0,0,0,0,0,0,0,0,0,0,0,0,0,0,0,0,0,0,0,0,0,0,0,0],"split_type":[0,0,0,0,0,0,0,0,0,0,0,0,0,0,0,0,0,0,0,0,0,0,0,0,0,0,0,0,0,0,0,0,0,0,0,0,0,0,0,0,0,0,0,0,0,0,0,0,0,0,0,0,0,0,0,0,0],"sum_hessian":[7.48E2,6.05E2,1.43E2,3.98E2,2.07E2,1.23E2,2E1,2.62E2,1.36E2,1.09E2,9.8E1,2E1,1.03E2,1.5E1,5E0,1.91E2,7.1E1,2.1E1,1.15E2,6.2E1,4.7E1,5.4E1,4.4E1,1.2E1,8E0,7.5E1,2.8E1,4E0,1.1E1,6.3E1,1.28E2,6.3E1,8E0,9E0,1.2E1,9E1,2.5E1,2.2E1,4E1,2.5E1,2.2E1,4.7E1,7E0,3.6E1,8E0,7E0,5E0,2E0,6E0,5.7E1,1.8E1,1.2E1,1.6E1,3E0,1E0,3E0,8E0],"tree_param":{"num_deleted":"0","num_feature":"7","num_nodes":"57","size_leaf_vector":"1"}},{"base_weights":[5.5980187E-2,-4.4790938E-1,4.59024E0,-1.1247638E0,7.8357583E-1,3.3974588E0,7.4956074E0,-1.4334279E0,-5.7259905E-1,6.2141765E-2,1.9434682E0,5.30733E0,1.6289884E0,6.1063166E0,9.9511147E-1,-1.2133976E0,-1.8895217E0,9.0867233E-1,-1.0014867E0,1.2080895E0,-7.683967E-1,4.6146255E0,9.862038E-1,7.5909863E0,2.8076973E0,4.7934113E0,4.5749402E-1,1.0034225E1,3.9608285E0,-1.6331868E-1,-7.139406E-2,-2.4235204E-1,-1.678007E-1,-2.9978028E-2,1.4523827E-1,-1.8509163E-2,-1.7512088E-1,8.2154654E-2,4.1830698E-1,-1.5355638E-1,-4.5176856E-2,2.0697771E-1,6.0035497E-1,-1.3401844E-1,2.103666E-1,1.363968E-1,7.99624E-1,-8.0596924E-2,5.618693E-1,5.137913E-1,1.1909485E-1,-3.7732944E-1,1.04010694E-1,1.1161733E0,2.7620974E-1,5.2855443E-2,5.046192E-1],"categories":[],"categories_nodes":[],"categories_segments":[],"categories_sizes":[],"default_left":[0,0,0,0,0,0,0,0,0,0,0,0,0,0,0,0,0,0,0,0,0,0,0,0,0,0,0,0,0,0,0,0,0,0,0,0,0,0,0,0,0,0,0,0,0,0,0,0,0,0,0,0,0,0,0,0,0],"id":18,"left_children":[1,3,5,7,9,11,13,15,17,19,21,23,25,27,-1,29,31,33,35,37,39,41,43,45,47,49,51,53,55,-1,-1,-1,-1,-1,-1,-1,-1,-1,-1,-1,-1,-1,-1,-1,-1,-1,-1,-1,-1,-1,-1,-1,-1,-1,-1,-1,-1],"loss_changes":[1.7133458E3,5.635183E2,2.3444397E2,7.348816E1,2.0070784E2,1.7711975E2,1.0875E1,2.5706116E1,1.0128725E2,1.427396E2,2.3069339E2,1.2710266E2,1.0902015E2,9.509271E1,0E0,3.888034E1,5.9857483E0,2.408913E1,7.49604E1,6.901074E1,2.0439163E1,7.240442E1,1.8219522E2,2.1899231E1,1.4674052E2,3.8094635E0,6.06176E1,1.0167084E1,4.2035965E1,0E0,0E0,0E0,0E0,0E0,0E0,0E0,0E0,0E0,0E0,0E0,0E0,0E0,0E0,0E0,0E0,0E0,0E0,0E0,0E0,0E0,0E0,0E0,0E0,0E0,0E0,0E0,0E0],"parents":[2147483647,0,0,1,1,2,2,3,3,4,4,5,5,6,6,7,7,8,8,9,9,10,10,11,11,12,12,13,13,15,15,16,16,17,17,18,18,19,19,20,20,21,21,22,22,23,23,24,24,25,25,26,26,27,27,28,28],"right_children":[2,4,6,8,10,12,14,16,18,20,22,24,26,28,-1,30,32,34,36,38,40,42,44,46,48,50,52,54,56,-1,-1,-1,-1,-1,-1,-1,-1,-1,-1,-1,-1,-1,-1,-1,-1,-1,-1,-1,-1,-1,-1,-1,-1,-1,-1,-1,-1],"split_conditions":[2.6333334E1,1.1666667E1,3.6333332E1,6.6666665E0,9E0,2.7E1,5.2E1,5E0,6E0,1.6E1,1E1,1E1,2.4E1,1E1,9.9511147E-1,3.3333333E0,4.3333335E0,7.6666665E0,9E0,1.9E1,1.5666667E1,1.5E1,1.1E1,1E0,1.1E1,2E0,2.8E1,3.6E1,1.1E1,-1.6331868E-1,-7.139406E-2,-2.4235204E-1,-1.678007E-1,-2.9978028E-2,1.4523827E-1,-1.8509163E-2,-1.7512088E-1,8.2154654E-2,4.1830698E-1,-1.5355638E-1,-4.5176856E-2,2.0697771E-1,6.0035497E-1,-1.3401844E-1,2.103666E-1,1.363968E-1,7.99624E-1,-8.0596924E-2,5.618693E-1,5.137913E-1,1.1909485E-1,-3.7732944E-1,1.04010694E-1,1.1161733E0,2.7620974E-1,5.2855443E-2,5.046192E-1],"split_indices":[4,4,4,4,5,3,4,2,3,3,5,5,2,5,0,4,4,4,2,4,4,4,5,0,5,0,4,2,5,0,0,0,0,0,0,0,0,0,0,0,0,0,0,0,0,0,0,0,0,0,0,0,0,0,0,0,0],"split_type":[0,0,0,0,0,0,0,0,0,0,0,0,0,0,0,0,0,0,0,0,0,0,0,0,0,0,0,0,0,0,0,0,0,0,0,0,0,0,0,0,0,0,0,0,0,0,0,0,0,0,0,0,0,0,0,0,0],"sum_hessian":[7.48E2,6.74E2,7.4E1,4.35E2,2.39E2,5.4E1,2E1,2.78E2,1.57E2,1.48E2,9.1E1,2.5E1,2.9E1,1.5E1,5E0,1.9E2,8.8E1,3.5E1,1.22E2,6.2E1,8.6E1,2.3E1,6.8E1,1.2E1,1.3E1,7E0,2.2E1,4E0,1.1E1,1.02E2,8.8E1,2.2E1,6.6E1,1.1E1,2.4E1,5.9E1,6.3E1,5.6E1,6E0,2.4E1,6.2E1,9E0,1.4E1,2.2E1,4.6E1,1E0,1.1E1,6E0,7E0,6E0,1E0,2E0,2E1,3E0,1E0,3E0,8E0],"tree_param":{"num_deleted":"0","num_feature":"7","num_nodes":"57","size_leaf_vector":"1"}},{"base_weights":[5.7303417E-2,-4.0243372E-1,4.1941733E0,-1.0910848E0,5.9097505E-1,3.123817E0,6.9814634E0,-2.0359652E0,-9.6823776E-1,2.929852E-3,1.525225E0,6.01187E0,2.1108737E0,6.141213E0,1.1473114E0,-9.4963366E-1,-2.09095E-1,-1.267791E0,-4.8232245E-1,6.5801877E-1,-8.8551855E-1,3.9827254E0,6.872283E-1,6.640946E0,-1.0830593E-1,3.8702176E0,2.55581E-1,7.3753996E0,2.2379081E0,-1.2737598E-1,1.1372328E-3,-4.4693366E-2,-1.4058685E-1,3.814744E-2,-8.682271E-2,1.9009867E-1,-8.242297E-3,-1.1637316E-1,3.700746E-2,1.9911782E-1,5.443218E-1,-1.5472947E-1,1.7124136E-1,2.8991794E-2,7.1460384E-1,4.096875E-1,-4.447913E-2,-3.2182187E-1,1.2063264E-1,3.7406802E-1,8.026625E-1,-1.19810104E-1,4.2554379E-1],"categories":[],"categories_nodes":[],"categories_segments":[],"categories_sizes":[],"default_left":[0,0,0,0,0,0,0,0,0,0,0,0,0,0,0,0,0,0,0,0,0,0,0,0,0,0,0,0,0,0,0,0,0,0,0,0,0,0,0,0,0,0,0,0,0,0,0,0,0,0,0,0,0],"id":19,"left_children":[1,3,5,7,9,11,13,15,17,19,21,23,25,27,-1,29,-1,31,33,35,37,39,41,43,-1,45,47,49,51,-1,-1,-1,-1,-1,-1,-1,-1,-1,-1,-1,-1,-1,-1,-1,-1,-1,-1,-1,-1,-1,-1,-1,-1],"loss_changes":[1.4261907E3,4.6242044E2,2.019458E2,4.4342957E1,1.5217413E2,1.5113397E2,5.0233765E0,7.0228577E-1,5.1061462E1,1.0010686E2,2.1761635E2,6.967804E1,1.3936705E2,7.502527E1,0E0,1.2604342E0,0E0,2.4193542E1,4.599923E1,9.1270874E1,2.5931202E1,6.7694824E1,1.882044E2,3.963031E1,0E0,2.3338867E1,7.65416E1,3.1132812E0,4.6691948E1,0E0,0E0,0E0,0E0,0E0,0E0,0E0,0E0,0E0,0E0,0E0,0E0,0E0,0E0,0E0,0E0,0E0,0E0,0E0,0E0,0E0,0E0,0E0,0E0],"parents":[2147483647,0,0,1,1,2,2,3,3,4,4,5,5,6,6,7,7,8,8,9,9,10,10,11,11,12,12,13,13,15,15,17,17,18,18,19,19,20,20,21,21,22,22,23,23,25,25,26,26,27,27,28,28],"right_children":[2,4,6,8,10,12,14,16,18,20,22,24,26,28,-1,30,-1,32,34,36,38,40,42,44,-1,46,48,50,52,-1,-1,-1,-1,-1,-1,-1,-1,-1,-1,-1,-1,-1,-1,-1,-1,-1,-1,-1,-1,-1,-1,-1,-1],"split_conditions":[2.6333334E1,1.0666667E1,3.6666668E1,3E0,9E0,2.3E1,6.1E1,2E0,6E0,1.8E1,1E1,4.8E1,3.1E1,6E1,1.1473114E0,8E0,-2.09095E-1,4E0,7E0,5E0,2.2666666E1,1.5E1,1.1E1,1E0,-1.0830593E-1,5E1,2.8666666E1,2.9E1,4.8666668E1,-1.2737598E-1,1.1372328E-3,-4.4693366E-2,-1.4058685E-1,3.814744E-2,-8.682271E-2,1.9009867E-1,-8.242297E-3,-1.1637316E-1,3.700746E-2,1.9911782E-1,5.443218E-1,-1.5472947E-1,1.7124136E-1,2.8991794E-2,7.1460384E-1,4.096875E-1,-4.447913E-2,-3.2182187E-1,1.2063264E-1,3.7406802E-1,8.026625E-1,-1.19810104E-1,4.2554379E-1],"split_indices":[4,4,4,5,5,3,4,2,4,3,5,2,2,2,0,1,0,5,2,5,4,4,5,0,0,3,4,3,4,0,0,0,0,0,0,0,0,0,0,0,0,0,0,0,0,0,0,0,0,0,0,0,0],"split_type":[0,0,0,0,0,0,0,0,0,0,0,0,0,0,0,0,0,0,0,0,0,0,0,0,0,0,0,0,0,0,0,0,0,0,0,0,0,0,0,0,0,0,0,0,0,0,0,0,0,0,0,0,0],"sum_hessian":[7.48E2,6.74E2,7.4E1,3.98E2,2.76E2,5.5E1,1.9E1,4.4E1,3.54E2,1.7E2,1.06E2,1.3E1,4.2E1,1.8E1,1E0,3E0,4.1E1,2.18E2,1.36E2,9.8E1,7.2E1,2.6E1,8E1,1.2E1,1E0,2.1E1,2.1E1,1.3E1,5E0,2E0,1E0,3.2E1,1.86E2,4.2E1,9.4E1,3.6E1,6.2E1,5.9E1,1.3E1,1.2E1,1.4E1,2.5E1,5.5E1,1E0,1.1E1,2E1,1E0,4E0,1.7E1,3E0,1E1,2E0,3E0],"tree_param":{"num_deleted":"0","num_feature":"7","num_nodes":"53","size_leaf_vector":"1"}},{"base_weights":[5.6542724E-2,-6.7064804E-1,2.2455902E0,-1.0772737E0,-1.7331136E-2,1.5640373E0,5.4979854E0,-9.5530283E-1,-1.8546203E0,1.1515592E0,-3.7419388E-1,2.2456465E0,1.9703022E-1,4.1667123E0,7.369548E-1,-1.3032292E0,-5.5933416E-1,-1.5209162E0,-2.4428813E-1,5.838229E-1,1.6345906E0,4.2495526E-2,-1.2965357E0,1.3803183E0,3.2264392E0,-4.7773707E-1,2.1108632E0,5.1374745E0,2.3015323E0,-9.963969E-2,-1.6738163E-1,-3.686827E-2,-2.2897168E-1,-1.770225E-1,-1.4554071E-2,1.15617774E-1,-7.769533E-2,2.5762567E-1,7.095074E-2,-3.3619456E-2,1.8770176E-1,-2.0388114E-1,-1.9166833E-2,3.6749583E-1,2.270241E-2,4.784762E-1,2.1319535E-1,5.576959E-2,-1.3502593E-1,4.502116E-1,1.0494199E-1,7.232014E-1,2.9243857E-1,5.49016E-3,3.4156975E-1],"categories":[],"categories_nodes":[],"categories_segments":[],"categories_sizes":[],"default_left":[0,0,0,0,0,0,0,0,0,0,0,0,0,0,0,0,0,0,0,0,0,0,0,0,0,0,0,0,0,0,0,0,0,0,0,0,0,0,0,0,0,0,0,0,0,0,0,0,0,0,0,0,0,0,0],"id":20,"left_children":[1,3,5,7,9,11,13,15,17,19,21,23,25,27,-1,29,31,33,-1,35,37,39,41,43,45,47,49,51,53,-1,-1,-1,-1,-1,-1,-1,-1,-1,-1,-1,-1,-1,-1,-1,-1,-1,-1,-1,-1,-1,-1,-1,-1,-1,-1],"loss_changes":[1.1938054E3,1.4954536E2,4.0591986E2,3.1128601E1,9.094885E1,1.4491278E2,4.9023193E1,4.0876984E1,5.314621E0,1.3031639E1,6.423821E1,8.381207E1,6.94522E1,2.6199493E1,0E0,1.6525513E1,4.6331516E1,1.0714943E1,0E0,2.0369469E1,2.1692352E1,8.1218025E1,4.225528E1,1.500102E2,7.166608E1,3.6890564E1,3.0809902E1,3.9111053E1,2.2340527E1,0E0,0E0,0E0,0E0,0E0,0E0,0E0,0E0,0E0,0E0,0E0,0E0,0E0,0E0,0E0,0E0,0E0,0E0,0E0,0E0,0E0,0E0,0E0,0E0,0E0,0E0],"parents":[2147483647,0,0,1,1,2,2,3,3,4,4,5,5,6,6,7,7,8,8,9,9,10,10,11,11,12,12,13,13,15,15,16,16,17,17,19,19,20,20,21,21,22,22,23,23,24,24,25,25,26,26,27,27,28,28],"right_children":[2,4,6,8,10,12,14,16,18,20,22,24,26,28,-1,30,32,34,-1,36,38,40,42,44,46,48,50,52,54,-1,-1,-1,-1,-1,-1,-1,-1,-1,-1,-1,-1,-1,-1,-1,-1,-1,-1,-1,-1,-1,-1,-1,-1,-1,-1],"split_conditions":[1.7666666E1,8.666667E0,3.4E1,8E0,9E0,2.5E1,4.2666668E1,4.3333335E0,7E0,1.0666667E1,1.5E1,2.2E1,3.1E1,3.8E1,7.369548E-1,3E0,1.1E1,7E0,-2.4428813E-1,1.3E1,1.6E1,1.5E1,1.5666667E1,1.5E1,1E1,2E1,2.4E1,3.5E1,3.6E1,-9.963969E-2,-1.6738163E-1,-3.686827E-2,-2.2897168E-1,-1.770225E-1,-1.4554071E-2,1.15617774E-1,-7.769533E-2,2.5762567E-1,7.095074E-2,-3.3619456E-2,1.8770176E-1,-2.0388114E-1,-1.9166833E-2,3.6749583E-1,2.270241E-2,4.784762E-1,2.1319535E-1,5.576959E-2,-1.3502593E-1,4.502116E-1,1.0494199E-1,7.232014E-1,2.9243857E-1,5.49016E-3,3.4156975E-1],"split_indices":[4,4,4,3,3,3,4,4,2,4,2,4,4,2,0,3,2,4,0,2,2,4,4,3,5,2,2,3,4,0,0,0,0,0,0,0,0,0,0,0,0,0,0,0,0,0,0,0,0,0,0,0,0,0,0],"split_type":[0,0,0,0,0,0,0,0,0,0,0,0,0,0,0,0,0,0,0,0,0,0,0,0,0,0,0,0,0,0,0,0,0,0,0,0,0,0,0,0,0,0,0,0,0,0,0,0,0,0,0,0,0,0,0],"sum_hessian":[7.48E2,5.62E2,1.86E2,3.46E2,2.16E2,1.55E2,3.1E1,3.01E2,4.5E1,5E1,1.66E2,1.03E2,5.2E1,2E1,1.1E1,1.59E2,1.42E2,3.1E1,1.4E1,2.4E1,2.6E1,1.15E2,5.1E1,5.6E1,4.7E1,3.9E1,1.3E1,1.2E1,8E0,8.9E1,7E1,1.29E2,1.3E1,2.6E1,5E0,1.7E1,7E0,1.2E1,1.4E1,9.6E1,1.9E1,3E1,2.1E1,1.8E1,3.8E1,1.8E1,2.9E1,1.8E1,2.1E1,3E0,1E1,5E0,7E0,3E0,5E0],"tree_param":{"num_deleted":"0","num_feature":"7","num_nodes":"55","size_leaf_vector":"1"}},{"base_weights":[5.487536E-2,-3.2891095E-1,3.5082204E0,-8.252658E-1,6.224273E-1,2.5826163E0,5.7653637E0,-1.0666252E0,-4.1463605E-1,1.2404213E0,-2.818422E-1,5.1079726E0,1.6793399E0,5.0005336E0,1.0530981E0,-8.5367924E-1,-1.5116371E0,8.6272246E-1,-7.625007E-1,6.670191E-1,2.7876267E0,-7.6367253E-1,9.5994043E-1,5.6755867E0,-1.1355038E-1,3.2220545E0,1.3041501E-1,6.228661E0,1.8299171E0,-1.4375564E-1,-5.550713E-2,-1.939021E-1,-1.3423614E-1,-1.3731449E-2,1.3082312E-1,-4.136431E-2,-2.3005891E-1,1.5981871E-1,-2.5906906E-2,3.758174E-1,-1.2003777E-1,-1.0055908E-1,2.5854874E-2,3.9008623E-1,2.7887313E-2,1.688242E-2,6.120415E-1,3.52908E-1,2.0354366E-2,-2.9920298E-1,9.905155E-2,9.1733295E-1,4.5916304E-1,-1.4777349E-1,3.448525E-1],"categories":[],"categories_nodes":[],"categories_segments":[],"categories_sizes":[],"default_left":[0,0,0,0,0,0,0,0,0,0,0,0,0,0,0,0,0,0,0,0,0,0,0,0,0,0,0,0,0,0,0,0,0,0,0,0,0,0,0,0,0,0,0,0,0,0,0,0,0,0,0,0,0,0,0],"id":21,"left_children":[1,3,5,7,9,11,13,15,17,19,21,23,25,27,-1,29,31,33,35,37,39,41,43,45,-1,47,49,51,53,-1,-1,-1,-1,-1,-1,-1,-1,-1,-1,-1,-1,-1,-1,-1,-1,-1,-1,-1,-1,-1,-1,-1,-1,-1,-1],"loss_changes":[9.938384E2,3.192496E2,1.4180194E2,4.3562256E1,1.299989E2,1.1688217E2,2.3882141E1,2.514859E1,7.441957E1,1.20570206E2,5.7574284E1,5.605905E1,9.994086E1,6.648047E1,0E0,3.2502975E1,3.835907E0,1.6218552E1,6.933955E1,8.837309E1,1.4772144E2,1.7323284E1,5.2992226E1,3.0811066E1,0E0,1.8743607E1,6.2047207E1,2.5366638E1,4.257254E1,0E0,0E0,0E0,0E0,0E0,0E0,0E0,0E0,0E0,0E0,0E0,0E0,0E0,0E0,0E0,0E0,0E0,0E0,0E0,0E0,0E0,0E0,0E0,0E0,0E0,0E0],"parents":[2147483647,0,0,1,1,2,2,3,3,4,4,5,5,6,6,7,7,8,8,9,9,10,10,11,11,12,12,13,13,15,15,16,16,17,17,18,18,19,19,20,20,21,21,22,22,23,23,25,25,26,26,27,27,28,28],"right_children":[2,4,6,8,10,12,14,16,18,20,22,24,26,28,-1,30,32,34,36,38,40,42,44,46,-1,48,50,52,54,-1,-1,-1,-1,-1,-1,-1,-1,-1,-1,-1,-1,-1,-1,-1,-1,-1,-1,-1,-1,-1,-1,-1,-1,-1,-1],"split_conditions":[2.6333334E1,1.2E1,3.6333332E1,6.6666665E0,1.8E1,2.3E1,6.1E1,5E0,6E0,1.8333334E1,9E0,4.8E1,3.1E1,5.2E1,1.0530981E0,2.6666667E0,4.3333335E0,7.6666665E0,1.3E1,1.6E1,3.1E1,2.2666666E1,1E1,1E0,-1.1355038E-1,4.3E1,2.8666666E1,1E1,4.8666668E1,-1.4375564E-1,-5.550713E-2,-1.939021E-1,-1.3423614E-1,-1.3731449E-2,1.3082312E-1,-4.136431E-2,-2.3005891E-1,1.5981871E-1,-2.5906906E-2,3.758174E-1,-1.2003777E-1,-1.0055908E-1,2.5854874E-2,3.9008623E-1,2.7887313E-2,1.688242E-2,6.120415E-1,3.52908E-1,2.0354366E-2,-2.9920298E-1,9.905155E-2,9.1733295E-1,4.5916304E-1,-1.4777349E-1,3.448525E-1],"split_indices":[4,4,4,4,3,3,4,2,3,4,5,2,2,2,0,4,4,4,2,2,2,4,5,0,0,3,4,5,4,0,0,0,0,0,0,0,0,0,0,0,0,0,0,0,0,0,0,0,0,0,0,0,0,0,0],"split_type":[0,0,0,0,0,0,0,0,0,0,0,0,0,0,0,0,0,0,0,0,0,0,0,0,0,0,0,0,0,0,0,0,0,0,0,0,0,0,0,0,0,0,0,0,0,0,0,0,0,0,0,0,0,0,0],"sum_hessian":[7.48E2,6.74E2,7.4E1,4.43E2,2.31E2,5.4E1,2E1,2.78E2,1.65E2,1.37E2,9.4E1,1.3E1,4.1E1,1.9E1,1E0,1.9E2,8.8E1,3.5E1,1.3E2,1.01E2,3.6E1,6.8E1,2.6E1,1.2E1,1E0,2E1,2.1E1,1.3E1,6E0,6.3E1,1.27E2,2.2E1,6.6E1,1.1E1,2.4E1,1.07E2,2.3E1,5E1,5.1E1,2.9E1,7E0,5.5E1,1.3E1,4E0,2.2E1,1E0,1.1E1,1.8E1,2E0,4E0,1.7E1,3E0,1E1,2E0,4E0],"tree_param":{"num_deleted":"0","num_feature":"7","num_nodes":"55","size_leaf_vector":"1"}},{"base_weights":[5.3882312E-2,-4.4776478E-1,2.2585766E0,-8.5268855E-1,1.7744054E-1,1.5302455E0,4.6461134E0,-7.24931E-1,-1.5437578E0,7.063157E-1,-4.9149022E-1,2.5286908E0,4.8497272E-1,4.1505404E0,1.0004433E0,-9.648947E-1,-1.9936006E-1,-1.1632754E0,-2.1894865E0,2.7477437E-1,1.9314404E0,-2.686968E-1,-2.4114418E0,6.182742E-1,1.8670012E0,-3.6661348E-1,1.4874772E0,5.5088515E0,2.5328207E0,-7.8183375E-2,-1.5418209E-1,4.88564E-2,-5.6114763E-2,-1.6978617E-1,-4.7496486E-2,-1.1586577E-1,-2.4558523E-1,1.154032E-1,-4.8158716E-2,2.5204277E-1,-1.3354029E-1,-1.10924974E-1,5.7733964E-2,-1.0737419E-1,-2.7788615E-1,1.2997417E-1,3.4604678E-1,1.0158296E-1,-1.6397405E-1,3.7505734E-1,7.341745E-2,8.0155367E-1,3.203287E-1,4.981243E-2,3.7038264E-1],"categories":[],"categories_nodes":[],"categories_segments":[],"categories_sizes":[],"default_left":[0,0,0,0,0,0,0,0,0,0,0,0,0,0,0,0,0,0,0,0,0,0,0,0,0,0,0,0,0,0,0,0,0,0,0,0,0,0,0,0,0,0,0,0,0,0,0,0,0,0,0,0,0,0,0],"id":22,"left_children":[1,3,5,7,9,11,13,15,17,19,21,23,25,27,-1,29,31,33,35,37,39,41,43,-1,45,47,49,51,53,-1,-1,-1,-1,-1,-1,-1,-1,-1,-1,-1,-1,-1,-1,-1,-1,-1,-1,-1,-1,-1,-1,-1,-1,-1,-1],"loss_changes":[8.2938916E2,1.5483237E2,2.345998E2,3.163623E1,8.560833E1,1.1148761E2,4.3450256E1,3.953479E1,1.145726E1,7.0842705E1,4.5121574E1,1.21438416E2,4.6646156E1,5.4165405E1,0E0,2.1606903E1,2.5162394E1,1.31761055E1,2.6460571E0,6.7724464E1,7.07103E1,6.9620834E1,2.4226875E0,0E0,3.8889908E1,5.446646E1,3.986634E1,6.679312E1,3.6277275E1,0E0,0E0,0E0,0E0,0E0,0E0,0E0,0E0,0E0,0E0,0E0,0E0,0E0,0E0,0E0,0E0,0E0,0E0,0E0,0E0,0E0,0E0,0E0,0E0,0E0,0E0],"parents":[2147483647,0,0,1,1,2,2,3,3,4,4,5,5,6,6,7,7,8,8,9,9,10,10,11,11,12,12,13,13,15,15,16,16,17,17,18,18,19,19,20,20,21,21,22,22,24,24,25,25,26,26,27,27,28,28],"right_children":[2,4,6,8,10,12,14,16,18,20,22,24,26,28,-1,30,32,34,36,38,40,42,44,-1,46,48,50,52,54,-1,-1,-1,-1,-1,-1,-1,-1,-1,-1,-1,-1,-1,-1,-1,-1,-1,-1,-1,-1,-1,-1,-1,-1,-1,-1],"split_conditions":[2.0333334E1,9.666667E0,3.4E1,8E0,1.4E1,2.4E1,6.1E1,5.6666665E0,7E0,1.4666667E1,2.3E1,1.7E1,2.8E1,3.8E1,1.0004433E0,5E0,7E0,6.6666665E0,2E0,1.2E1,2.5E1,1.5666667E1,6E0,6.182742E-1,2.7666666E1,2E1,2.4E1,3.2E1,1.1E1,-7.8183375E-2,-1.5418209E-1,4.88564E-2,-5.6114763E-2,-1.6978617E-1,-4.7496486E-2,-1.1586577E-1,-2.4558523E-1,1.154032E-1,-4.8158716E-2,2.5204277E-1,-1.3354029E-1,-1.10924974E-1,5.7733964E-2,-1.0737419E-1,-2.7788615E-1,1.2997417E-1,3.4604678E-1,1.0158296E-1,-1.6397405E-1,3.7505734E-1,7.341745E-2,8.0155367E-1,3.203287E-1,4.981243E-2,3.7038264E-1],"split_indices":[4,4,4,3,3,3,4,4,2,4,2,2,4,2,0,2,2,4,5,2,2,4,1,0,4,2,2,3,5,0,0,0,0,0,0,0,0,0,0,0,0,0,0,0,0,0,0,0,0,0,0,0,0,0,0],"split_type":[0,0,0,0,0,0,0,0,0,0,0,0,0,0,0,0,0,0,0,0,0,0,0,0,0,0,0,0,0,0,0,0,0,0,0,0,0,0,0,0,0,0,0,0,0,0,0,0,0,0,0,0,0,0,0],"sum_hessian":[7.48E2,6.1E2,1.38E2,3.7E2,2.4E2,1.07E2,3.1E1,3.14E2,5.6E1,1.34E2,1.06E2,5.4E1,5.3E1,3E1,1E0,2.15E2,9.9E1,3.7E1,1.9E1,1E2,3.4E1,9.6E1,1E1,7E0,4.7E1,2.9E1,2.4E1,1.5E1,1.5E1,1.65E2,5E1,3.4E1,6.5E1,2E1,1.7E1,5E0,1.4E1,4.6E1,5.4E1,2.9E1,5E0,4.8E1,4.8E1,3E0,7E0,3.6E1,1.1E1,1.4E1,1.5E1,5E0,1.9E1,6E0,9E0,6E0,9E0],"tree_param":{"num_deleted":"0","num_feature":"7","num_nodes":"55","size_leaf_vector":"1"}},{"base_weights":[5.2435104E-2,-2.4334624E-1,3.1687088E0,-6.3055E-1,6.727105E-1,2.4807603E0,5.7296743E0,-5.208686E-1,-1.439212E0,1.4157015E0,-1.453788E-1,6.696883E-1,2.1841109E0,4.623112E0,9.5042115E-1,-7.606986E-1,4.7940108E-1,-7.7011174E-1,-2.058684E0,2.740398E0,7.336908E-1,3.1655E-1,-1.2029691E0,2.7542207E0,6.3223207E-1,6.8152416E-1,2.0836997E0,-6.971699E-2,-2.0194645E-1,1.6259983E-1,-4.334393E-2,-1.9830434E-1,-1.25140315E-2,-1.4967008E-1,-2.6352248E-1,1.7225224E-1,4.632605E-1,-1.594714E-2,1.7940786E-1,-7.04892E-2,1.5196203E-1,-9.0574495E-2,-3.576071E-1,3.1952584E-1,-5.701669E-3,-5.0189745E-2,1.6873327E-1,-1.4564133E-2,3.0045643E-1],"categories":[],"categories_nodes":[],"categories_segments":[],"categories_sizes":[],"default_left":[0,0,0,0,0,0,0,0,0,0,0,0,0,0,0,0,0,0,0,0,0,0,0,0,0,0,0,0,0,0,0,0,0,0,0,0,0,0,0,0,0,0,0,0,0,0,0,0,0],"id":23,"left_children":[1,3,5,7,9,11,13,15,17,19,21,-1,23,25,-1,27,29,31,33,35,37,39,41,43,45,-1,47,-1,-1,-1,-1,-1,-1,-1,-1,-1,-1,-1,-1,-1,-1,-1,-1,-1,-1,-1,-1,-1,-1],"loss_changes":[6.9115106E2,2.4339412E2,1.0030383E2,4.200142E1,1.2420374E2,5.166095E1,1.0358826E1,1.0255981E2,2.2040459E1,9.465932E1,4.8256878E1,0E0,4.338051E1,5.259973E1,0E0,2.6100998E1,8.7577576E1,2.2438726E1,5.4520416E0,6.135736E1,6.847717E1,8.5862946E1,1.7921284E1,4.6057068E1,1.879618E1,0E0,1.4808037E1,0E0,0E0,0E0,0E0,0E0,0E0,0E0,0E0,0E0,0E0,0E0,0E0,0E0,0E0,0E0,0E0,0E0,0E0,0E0,0E0,0E0,0E0],"parents":[2147483647,0,0,1,1,2,2,3,3,4,4,5,5,6,6,7,7,8,8,9,9,10,10,12,12,13,13,15,15,16,16,17,17,18,18,19,19,20,20,21,21,22,22,23,23,24,24,26,26],"right_children":[2,4,6,8,10,12,14,16,18,20,22,-1,24,26,-1,28,30,32,34,36,38,40,42,44,46,-1,48,-1,-1,-1,-1,-1,-1,-1,-1,-1,-1,-1,-1,-1,-1,-1,-1,-1,-1,-1,-1,-1,-1],"split_conditions":[2.8E1,1.3666667E1,4.2E1,1.2E1,1.8E1,1.8E1,6.1E1,9E0,8E0,1.7E1,2.3E1,6.696883E-1,3.7E1,4.4E1,9.5042115E-1,1.1E1,1.1E1,9.666667E0,1.4E1,1.6666666E1,1.8333334E1,1.9333334E1,3.6E1,4.8E1,3.3666668E1,6.8152416E-1,4.8666668E1,-6.971699E-2,-2.0194645E-1,1.6259983E-1,-4.334393E-2,-1.9830434E-1,-1.25140315E-2,-1.4967008E-1,-2.6352248E-1,1.7225224E-1,4.632605E-1,-1.594714E-2,1.7940786E-1,-7.04892E-2,1.5196203E-1,-9.0574495E-2,-3.576071E-1,3.1952584E-1,-5.701669E-3,-5.0189745E-2,1.6873327E-1,-1.4564133E-2,3.0045643E-1],"split_indices":[4,4,4,3,3,2,4,4,2,2,2,0,3,2,0,2,2,4,3,4,4,4,2,2,4,0,4,0,0,0,0,0,0,0,0,0,0,0,0,0,0,0,0,0,0,0,0,0,0],"split_type":[0,0,0,0,0,0,0,0,0,0,0,0,0,0,0,0,0,0,0,0,0,0,0,0,0,0,0,0,0,0,0,0,0,0,0,0,0,0,0,0,0,0,0,0,0,0,0,0,0],"sum_hessian":[7.48E2,6.84E2,6.4E1,4.81E2,2.03E2,5.2E1,1.2E1,4.25E2,5.6E1,1.06E2,9.7E1,2E0,5E1,1.1E1,1E0,3.43E2,8.2E1,2.8E1,2.8E1,3.5E1,7.1E1,6.8E1,2.9E1,3.6E1,1.4E1,5E0,6E0,3.28E2,1.5E1,3.6E1,4.6E1,9E0,1.9E1,1.6E1,1.2E1,2.4E1,1.1E1,3.9E1,3.2E1,3.7E1,3.1E1,2.7E1,2E0,3.1E1,5E0,7E0,7E0,2E0,4E0],"tree_param":{"num_deleted":"0","num_feature":"7","num_nodes":"49","size_leaf_vector":"1"}},{"base_weights":[5.0764E-2,-1.9241145E-1,3.2477927E0,-5.331673E-1,7.3977387E-1,2.5165362E0,5.3042336E0,-8.016959E-1,-2.0933627E-1,1.22006E0,-4.0553942E-1,3.8188384E0,1.7755088E0,4.24142E0,9.0290016E-1,-5.4673517E-1,-1.1069518E0,1.6969016E-1,-1.0943505E0,1.9350281E0,2.4536477E-1,-1.0102658E0,1.6724223E0,4.2761707E0,-1.06324196E-1,2.4077084E0,3.9677867E-1,5.9582605E0,1.5315351E0,-8.75621E-2,1.1522583E-2,-1.24909095E-1,-6.3107125E-2,6.2077057E-2,-4.1531224E-2,-9.756818E-2,-2.8084645E-1,1.4352833E-1,4.7575855E-1,-2.4068845E-2,2.8643918E-1,-3.6194675E-2,-2.1222027E-1,2.9308084E-1,7.8749426E-2,1.7992096E-1,4.562963E-1,8.837319E-3,3.0203065E-1,5.5223614E-2,-5.0116923E-2,7.9397255E-1,3.5777298E-1,-2.3158912E-1,2.7641988E-1],"categories":[],"categories_nodes":[],"categories_segments":[],"categories_sizes":[],"default_left":[0,0,0,0,0,0,0,0,0,0,0,0,0,0,0,0,0,0,0,0,0,0,0,0,0,0,0,0,0,0,0,0,0,0,0,0,0,0,0,0,0,0,0,0,0,0,0,0,0,0,0,0,0,0,0],"id":24,"left_children":[1,3,5,7,9,11,13,15,17,19,21,23,25,27,-1,29,31,33,35,37,39,41,43,45,-1,47,49,51,53,-1,-1,-1,-1,-1,-1,-1,-1,-1,-1,-1,-1,-1,-1,-1,-1,-1,-1,-1,-1,-1,-1,-1,-1,-1,-1],"loss_changes":[5.829267E2,2.2179482E2,6.6352356E1,4.426767E1,1.0335938E2,3.2786316E1,1.3167786E1,2.1108887E1,7.83441E1,9.151285E1,7.20591E1,3.5804886E1,2.3450386E1,4.6703995E1,0E0,3.362817E1,7.7345276E0,4.353465E1,1.149865E1,1.0037393E2,7.324966E1,3.0951023E1,1.216856E1,1.025116E0,0E0,2.6728668E1,1.6726909E0,4.612381E0,3.4857075E1,0E0,0E0,0E0,0E0,0E0,0E0,0E0,0E0,0E0,0E0,0E0,0E0,0E0,0E0,0E0,0E0,0E0,0E0,0E0,0E0,0E0,0E0,0E0,0E0,0E0,0E0],"parents":[2147483647,0,0,1,1,2,2,3,3,4,4,5,5,6,6,7,7,8,8,9,9,10,10,11,11,12,12,13,13,15,15,16,16,17,17,18,18,19,19,20,20,21,21,22,22,23,23,25,25,26,26,27,27,28,28],"right_children":[2,4,6,8,10,12,14,16,18,20,22,24,26,28,-1,30,32,34,36,38,40,42,44,46,-1,48,50,52,54,-1,-1,-1,-1,-1,-1,-1,-1,-1,-1,-1,-1,-1,-1,-1,-1,-1,-1,-1,-1,-1,-1,-1,-1,-1,-1],"split_conditions":[3.0666666E1,1.5E1,4.2E1,6.6666665E0,2.5E1,2.7E1,6.1E1,4E0,1.2E1,2.1E1,1.1E1,5.2E1,3.6E1,5E1,9.0290016E-1,3.6666667E0,9E0,1.1E1,2.8E1,2.0666666E1,2.5333334E1,1E1,1E0,2.016E3,-1.06324196E-1,3.2333332E1,2E0,3.2E1,4.8666668E1,-8.75621E-2,1.1522583E-2,-1.24909095E-1,-6.3107125E-2,6.2077057E-2,-4.1531224E-2,-9.756818E-2,-2.8084645E-1,1.4352833E-1,4.7575855E-1,-2.4068845E-2,2.8643918E-1,-3.6194675E-2,-2.1222027E-1,2.9308084E-1,7.8749426E-2,1.7992096E-1,4.562963E-1,8.837319E-3,3.0203065E-1,5.5223614E-2,-5.0116923E-2,7.9397255E-1,3.5777298E-1,-2.3158912E-1,2.7641988E-1],"split_indices":[4,4,4,4,2,3,4,3,3,3,5,2,2,2,0,4,5,2,3,4,4,5,0,6,0,4,0,2,4,0,0,0,0,0,0,0,0,0,0,0,0,0,0,0,0,0,0,0,0,0,0,0,0,0,0],"split_type":[0,0,0,0,0,0,0,0,0,0,0,0,0,0,0,0,0,0,0,0,0,0,0,0,0,0,0,0,0,0,0,0,0,0,0,0,0,0,0,0,0,0,0,0,0,0,0,0,0,0,0,0,0,0,0],"sum_hessian":[7.48E2,6.96E2,5.2E1,5.1E2,1.86E2,4E1,1.2E1,2.78E2,2.32E2,1.31E2,5.5E1,1.3E1,2.7E1,1.1E1,1E0,1.53E2,1.25E2,1.63E2,6.9E1,7.5E1,5.6E1,4.3E1,1.2E1,1.2E1,1E0,1.8E1,9E0,6E0,5E0,1.02E2,5.1E1,9.5E1,3E1,9.2E1,7.1E1,6.6E1,3E0,6.5E1,1E1,4.8E1,8E0,2.8E1,1.5E1,4E0,8E0,2E0,1E1,4E0,1.4E1,8E0,1E0,2E0,4E0,1E0,4E0],"tree_param":{"num_deleted":"0","num_feature":"7","num_nodes":"55","size_leaf_vector":"1"}},{"base_weights":[5.013153E-2,-3.090762E-1,1.9170036E0,-6.2446916E-1,2.0472513E-1,1.3648102E0,4.0919185E0,-5.2124E-1,-1.332222E0,6.7623794E-1,-5.7474357E-1,2.2788472E0,1.4269665E-1,3.523954E0,8.577551E-1,-6.5018684E-1,2.8210494E-1,-9.8245126E-1,-1.790267E0,5.2975875E-1,4.1034465E0,-3.0761966E-1,-2.1538239E0,3.179056E0,1.0354265E0,-4.1327292E-1,1.208058E0,4.1729503E0,9.896393E-1,-6.0835134E-2,-2.563871E-1,7.095326E-2,-1.4130734E-1,-5.6694217E-2,-1.5584698E-1,-6.2461615E-2,-2.0426412E-1,9.391891E-2,-3.1719822E-2,1.1739369E-1,4.4545612E-1,-6.244277E-2,8.84529E-2,-1.0748998E-1,-2.693789E-1,2.255268E-1,4.5307636E-1,-2.0479565E-2,2.9162392E-1,-1.6696038E-2,-3.6550122E-1,2.6158875E-1,2.4255468E-2,3.746147E-2,4.3743458E-1,-1.3468832E-1,2.4946213E-1],"categories":[],"categories_nodes":[],"categories_segments":[],"categories_sizes":[],"default_left":[0,0,0,0,0,0,0,0,0,0,0,0,0,0,0,0,0,0,0,0,0,0,0,0,0,0,0,0,0,0,0,0,0,0,0,0,0,0,0,0,0,0,0,0,0,0,0,0,0,0,0,0,0,0,0,0,0],"id":25,"left_children":[1,3,5,7,9,11,13,15,17,19,21,23,25,27,-1,29,31,33,35,37,39,41,43,45,47,49,51,53,55,-1,-1,-1,-1,-1,-1,-1,-1,-1,-1,-1,-1,-1,-1,-1,-1,-1,-1,-1,-1,-1,-1,-1,-1,-1,-1,-1,-1],"loss_changes":[5.0286813E2,1.0205687E2,1.3973306E2,2.779927E1,8.859573E1,1.0914642E2,3.091745E1,3.5610786E1,6.0914764E0,7.31284E1,3.772216E1,5.9391266E1,2.5968523E1,3.3699768E1,0E0,2.2057945E1,3.578179E1,6.296667E0,4.6077423E0,5.057954E1,9.421921E-1,3.0389225E1,4.6780014E0,2.974002E1,5.8912872E1,2.2545708E1,1.9754469E1,1.2130707E1,2.4458508E1,0E0,0E0,0E0,0E0,0E0,0E0,0E0,0E0,0E0,0E0,0E0,0E0,0E0,0E0,0E0,0E0,0E0,0E0,0E0,0E0,0E0,0E0,0E0,0E0,0E0,0E0,0E0,0E0],"parents":[2147483647,0,0,1,1,2,2,3,3,4,4,5,5,6,6,7,7,8,8,9,9,10,10,11,11,12,12,13,13,15,15,16,16,17,17,18,18,19,19,20,20,21,21,22,22,23,23,24,24,25,25,26,26,27,27,28,28],"right_children":[2,4,6,8,10,12,14,16,18,20,22,24,26,28,-1,30,32,34,36,38,40,42,44,46,48,50,52,54,56,-1,-1,-1,-1,-1,-1,-1,-1,-1,-1,-1,-1,-1,-1,-1,-1,-1,-1,-1,-1,-1,-1,-1,-1,-1,-1,-1,-1],"split_conditions":[2.2E1,1.0333333E1,3.6E1,9E0,1.6E1,2.7E1,6.1E1,7.6666665E0,8E0,1.9666666E1,2.3E1,3E1,3.2333332E1,6E1,8.577551E-1,1.1E1,1.3E1,1.2E1,2.016E3,1.8E1,4E0,1.9E1,1E1,2.5333334E1,2.9333334E1,3.7E1,3.1E1,1E0,4.8666668E1,-6.0835134E-2,-2.563871E-1,7.095326E-2,-1.4130734E-1,-5.6694217E-2,-1.5584698E-1,-6.2461615E-2,-2.0426412E-1,9.391891E-2,-3.1719822E-2,1.1739369E-1,4.4545612E-1,-6.244277E-2,8.84529E-2,-1.0748998E-1,-2.693789E-1,2.255268E-1,4.5307636E-1,-2.0479565E-2,2.9162392E-1,-1.6696038E-2,-3.6550122E-1,2.6158875E-1,2.4255468E-2,3.746147E-2,4.3743458E-1,-1.3468832E-1,2.4946213E-1],"split_indices":[4,4,4,3,3,3,4,4,2,4,2,2,4,2,0,2,2,3,6,2,5,4,1,4,4,2,2,1,4,0,0,0,0,0,0,0,0,0,0,0,0,0,0,0,0,0,0,0,0,0,0,0,0,0,0,0,0],"split_type":[0,0,0,0,0,0,0,0,0,0,0,0,0,0,0,0,0,0,0,0,0,0,0,0,0,0,0,0,0,0,0,0,0,0,0,0,0,0,0,0,0,0,0,0,0,0,0,0,0,0,0,0,0,0,0,0,0],"sum_hessian":[7.48E2,6.28E2,1.2E2,3.89E2,2.39E2,9.7E1,2.3E1,3.41E2,4.8E1,1.49E2,9E1,5.5E1,4.2E1,2.2E1,1E0,2.94E2,4.7E1,2.9E1,1.9E1,1.44E2,5E0,7.8E1,1.2E1,3.1E1,2.4E1,2.8E1,1.4E1,1.7E1,5E0,2.89E2,5E0,3.8E1,9E0,1.8E1,1.1E1,4E0,1.5E1,9.7E1,4.7E1,1E0,4E0,6.2E1,1.6E1,5E0,7E0,2E1,1.1E1,1.5E1,9E0,2.7E1,1E0,5E0,9E0,1E0,1.6E1,2E0,3E0],"tree_param":{"num_deleted":"0","num_feature":"7","num_nodes":"57","size_leaf_vector":"1"}},{"base_weights":[4.7398966E-2,-2.7911082E-1,1.7443185E0,-5.2744585E-1,2.8044167E-1,1.3228991E0,4.244596E0,-4.5771828E-1,-1.2894824E0,8.83369E-1,-5.0311655E-1,2.111111E0,3.429161E-1,3.491299E0,8.1486744E-1,-6.07514E-1,1.3243234E-1,-9.501672E-2,-1.6841184E0,1.1013962E0,-1.6857586E0,-2.3545612E-1,-1.9674314E0,2.882357E0,1.1188521E0,-3.851244E-1,1.381429E0,4.8102565E0,1.1083167E0,-3.3816587E-2,-8.6487286E-2,8.78276E-2,-9.463551E-2,-2.184794E-1,7.005268E-2,-2.1374278E-1,-1.0315215E-1,5.455763E-2,2.7051172E-1,-2.9148698E-2,-2.3343132E-1,-5.40527E-2,8.012789E-2,-1.3587724E-1,-2.9972216E-1,2.0404804E-1,4.115444E-1,-1.8559638E-2,2.7648792E-1,-1.5086015E-2,-3.4722614E-1,2.0849359E-1,2.899276E-2,6.772003E-1,3.002079E-1,-1.257091E-1,2.3058979E-1],"categories":[],"categories_nodes":[],"categories_segments":[],"categories_sizes":[],"default_left":[0,0,0,0,0,0,0,0,0,0,0,0,0,0,0,0,0,0,0,0,0,0,0,0,0,0,0,0,0,0,0,0,0,0,0,0,0,0,0,0,0,0,0,0,0,0,0,0,0,0,0,0,0,0,0,0,0],"id":26,"left_children":[1,3,5,7,9,11,13,15,17,19,21,23,25,27,-1,29,31,33,35,37,39,41,43,45,47,49,51,53,55,-1,-1,-1,-1,-1,-1,-1,-1,-1,-1,-1,-1,-1,-1,-1,-1,-1,-1,-1,-1,-1,-1,-1,-1,-1,-1,-1,-1],"loss_changes":[4.1547842E2,8.755155E1,1.2187836E2,2.2576622E1,9.2095604E1,8.038161E1,2.1546356E1,3.5529663E1,1.6809628E1,6.347206E1,3.285158E1,4.116107E1,3.6823837E1,4.4957565E1,0E0,2.1889648E1,6.6808914E1,1.8155594E1,5.7825623E0,8.944492E1,7.4579315E0,2.3521378E1,4.075741E0,2.482193E1,5.8486412E1,2.0449142E1,1.4753098E1,1.5141769E1,2.2728096E1,0E0,0E0,0E0,0E0,0E0,0E0,0E0,0E0,0E0,0E0,0E0,0E0,0E0,0E0,0E0,0E0,0E0,0E0,0E0,0E0,0E0,0E0,0E0,0E0,0E0,0E0,0E0,0E0],"parents":[2147483647,0,0,1,1,2,2,3,3,4,4,5,5,6,6,7,7,8,8,9,9,10,10,11,11,12,12,13,13,15,15,16,16,17,17,18,18,19,19,20,20,21,21,22,22,23,23,24,24,25,25,26,26,27,27,28,28],"right_children":[2,4,6,8,10,12,14,16,18,20,22,24,26,28,-1,30,32,34,36,38,40,42,44,46,48,50,52,54,56,-1,-1,-1,-1,-1,-1,-1,-1,-1,-1,-1,-1,-1,-1,-1,-1,-1,-1,-1,-1,-1,-1,-1,-1,-1,-1,-1,-1],"split_conditions":[2.2E1,1.1666667E1,4.0333332E1,1.2E1,1.6E1,2.7E1,6.1E1,8E0,6E0,2.5E1,2.3E1,3E1,3.2333332E1,5E1,8.1486744E-1,4E0,1.1E1,7.3333335E0,6E0,1.7E1,1E1,1.9E1,1.4E1,2.5333334E1,2.9333334E1,3.7E1,3.6E1,1E1,4.8666668E1,-3.3816587E-2,-8.6487286E-2,8.78276E-2,-9.463551E-2,-2.184794E-1,7.005268E-2,-2.1374278E-1,-1.0315215E-1,5.455763E-2,2.7051172E-1,-2.9148698E-2,-2.3343132E-1,-5.40527E-2,8.012789E-2,-1.3587724E-1,-2.9972216E-1,2.0404804E-1,4.115444E-1,-1.8559638E-2,2.7648792E-1,-1.5086015E-2,-3.4722614E-1,2.0849359E-1,2.899276E-2,6.772003E-1,3.002079E-1,-1.257091E-1,2.3058979E-1],"split_indices":[4,4,4,2,3,3,4,4,3,2,2,2,4,2,0,3,3,4,1,4,3,4,1,4,4,2,2,5,4,0,0,0,0,0,0,0,0,0,0,0,0,0,0,0,0,0,0,0,0,0,0,0,0,0,0,0,0],"split_type":[0,0,0,0,0,0,0,0,0,0,0,0,0,0,0,0,0,0,0,0,0,0,0,0,0,0,0,0,0,0,0,0,0,0,0,0,0,0,0,0,0,0,0,0,0,0,0,0,0,0,0,0,0,0,0,0,0],"sum_hessian":[7.48E2,6.28E2,1.2E2,4.35E2,1.93E2,1.04E2,1.6E1,4E2,3.5E1,1.09E2,8.4E1,5.7E1,4.7E1,1.5E1,1E0,3.19E2,8.1E1,9E0,2.6E1,1.01E2,8E0,7.2E1,1.2E1,3.1E1,2.6E1,2.8E1,1.9E1,9E0,6E0,1.57E2,1.62E2,4.8E1,3.3E1,2E0,7E0,1.4E1,1.2E1,7.6E1,2.5E1,3E0,5E0,5.6E1,1.6E1,9E0,3E0,2E1,1.1E1,1.5E1,1.1E1,2.7E1,1E0,1.1E1,8E0,3E0,6E0,2E0,4E0],"tree_param":{"num_deleted":"0","num_feature":"7","num_nodes":"57","size_leaf_vector":"1"}},{"base_weights":[4.4937264E-2,-1.826472E-1,2.0925982E0,-4.36789E-1,4.4971877E-1,1.6463978E0,4.5390015E0,-3.4468204E-1,-1.1175045E0,1.0303717E0,-2.3270652E-1,5.0045127E-1,1.3441523E0,3.4446537E0,7.7412397E-1,-5.1948607E-1,3.8395968E-1,-4.6449926E-1,-1.7319752E0,1.9609983E0,2.1228267E-1,1.4901636E0,-4.1896412E-1,2.8738782E0,9.5013505E-1,5.5958405E0,1.0778891E0,-4.6395577E-2,-1.6288596E-1,1.3009869E-1,-3.461246E-2,-1.493376E-1,7.3164105E-3,-9.662456E-2,-1.97767E-1,1.20662905E-1,3.4414706E-1,-2.5835896E-2,1.547303E-1,2.9669708E-2,3.7781975E-1,-7.7429146E-2,3.3352833E-2,3.339371E-1,-1.123271E-1,1.3129085E-2,2.074668E-1,6.792984E-1,2.5334167E-1,-2.0698968E-1,2.1214257E-1],"categories":[],"categories_nodes":[],"categories_segments":[],"categories_sizes":[],"default_left":[0,0,0,0,0,0,0,0,0,0,0,0,0,0,0,0,0,0,0,0,0,0,0,0,0,0,0,0,0,0,0,0,0,0,0,0,0,0,0,0,0,0,0,0,0,0,0,0,0,0,0],"id":27,"left_children":[1,3,5,7,9,11,13,15,17,19,21,-1,23,25,-1,27,29,31,33,35,37,39,41,43,45,47,49,-1,-1,-1,-1,-1,-1,-1,-1,-1,-1,-1,-1,-1,-1,-1,-1,-1,-1,-1,-1,-1,-1,-1,-1],"loss_changes":[3.4942807E2,1.08676125E2,7.4395966E1,2.9835564E1,7.711271E1,5.924655E1,1.1882095E1,5.4458866E1,2.2066895E1,7.952394E1,2.9505114E1,0E0,3.4036484E1,4.488183E1,0E0,2.0436005E1,5.601939E1,1.6151752E1,3.5450287E0,5.0571747E1,3.621378E1,2.3455246E1,2.2183502E1,2.6078758E1,4.576848E1,1.1213531E0,2.410011E1,0E0,0E0,0E0,0E0,0E0,0E0,0E0,0E0,0E0,0E0,0E0,0E0,0E0,0E0,0E0,0E0,0E0,0E0,0E0,0E0,0E0,0E0,0E0,0E0],"parents":[2147483647,0,0,1,1,2,2,3,3,4,4,5,5,6,6,7,7,8,8,9,9,10,10,12,12,13,13,15,15,16,16,17,17,18,18,19,19,20,20,21,21,22,22,23,23,24,24,25,25,26,26],"right_children":[2,4,6,8,10,12,14,16,18,20,22,-1,24,26,-1,28,30,32,34,36,38,40,42,44,46,48,50,-1,-1,-1,-1,-1,-1,-1,-1,-1,-1,-1,-1,-1,-1,-1,-1,-1,-1,-1,-1,-1,-1,-1,-1],"split_conditions":[2.6333334E1,1.3666667E1,4.4666668E1,1.2E1,1.8E1,1.8E1,6.1E1,9E0,8E0,1.9E1,1E1,5.0045127E-1,2.3E1,4.4E1,7.7412397E-1,1.1E1,1.1E1,9.666667E0,1.3E1,1.6666666E1,2.1666666E1,1.8666666E1,2.2333334E1,4.8E1,3.4E1,3.2E1,4.8666668E1,-4.6395577E-2,-1.6288596E-1,1.3009869E-1,-3.461246E-2,-1.493376E-1,7.3164105E-3,-9.662456E-2,-1.97767E-1,1.20662905E-1,3.4414706E-1,-2.5835896E-2,1.547303E-1,2.9669708E-2,3.7781975E-1,-7.7429146E-2,3.3352833E-2,3.339371E-1,-1.123271E-1,1.3129085E-2,2.074668E-1,6.792984E-1,2.5334167E-1,-2.0698968E-1,2.1214257E-1],"split_indices":[4,4,4,3,3,2,4,4,2,2,2,0,3,2,0,2,2,4,3,4,4,4,4,2,4,2,4,0,0,0,0,0,0,0,0,0,0,0,0,0,0,0,0,0,0,0,0,0,0,0,0],"split_type":[0,0,0,0,0,0,0,0,0,0,0,0,0,0,0,0,0,0,0,0,0,0,0,0,0,0,0,0,0,0,0,0,0,0,0,0,0,0,0,0,0,0,0,0,0,0,0,0,0,0,0],"sum_hessian":[7.48E2,6.74E2,7.4E1,4.81E2,1.93E2,6.4E1,1E1,4.25E2,5.6E1,1.04E2,8.9E1,4E0,6E1,9E0,1E0,3.43E2,8.2E1,2.8E1,2.8E1,4.8E1,5.6E1,8E0,8.1E1,1.1E1,4.9E1,4E0,5E0,3.28E2,1.5E1,3.6E1,4.6E1,9E0,1.9E1,8E0,2E1,3.3E1,1.5E1,4.2E1,1.4E1,6E0,2E0,5.5E1,2.6E1,1E1,1E0,2.9E1,2E1,2E0,2E0,1E0,4E0],"tree_param":{"num_deleted":"0","num_feature":"7","num_nodes":"51","size_leaf_vector":"1"}},{"base_weights":[4.4531036E-2,-1.490888E-1,2.0843012E0,-3.9425156E-1,4.3089914E-1,1.615119E0,4.24073E0,-3.1048086E-1,-1.0134104E0,9.707942E-1,-1.6297506E-1,5.212626E-1,1.3810126E0,3.1939673E0,7.354178E-1,-4.990392E-1,2.4247356E-1,-4.2294672E-1,-1.5689291E0,2.0458908E0,4.197626E-1,1.9135815E-1,-9.725089E-1,1.9656258E0,3.9657205E-1,5.2227845E0,9.709587E-1,-4.015443E-2,-1.2758826E-1,9.276044E-2,-4.225182E-2,-1.3589722E-1,6.6213347E-3,-1.1367615E-1,-2.0133844E-1,1.3323687E-1,3.3619043E-1,-2.3055954E-2,1.1953118E-1,-4.8359163E-2,9.86881E-2,-7.254364E-2,-2.954349E-1,2.372792E-1,1.1432375E-2,-1.5884407E-2,1.1547762E-1,6.3401186E-1,2.3645222E-1,-1.9664021E-1,1.9517113E-1],"categories":[],"categories_nodes":[],"categories_segments":[],"categories_sizes":[],"default_left":[0,0,0,0,0,0,0,0,0,0,0,0,0,0,0,0,0,0,0,0,0,0,0,0,0,0,0,0,0,0,0,0,0,0,0,0,0,0,0,0,0,0,0,0,0,0,0,0,0,0,0],"id":28,"left_children":[1,3,5,7,9,11,13,15,17,19,21,-1,23,25,-1,27,29,31,33,35,37,39,41,43,45,47,49,-1,-1,-1,-1,-1,-1,-1,-1,-1,-1,-1,-1,-1,-1,-1,-1,-1,-1,-1,-1,-1,-1,-1,-1],"loss_changes":[2.9612076E2,9.7571014E1,5.8914978E1,2.4685432E1,6.556668E1,3.912227E1,1.2360443E1,4.4537544E1,1.8033203E1,6.252932E1,2.829688E1,0E0,2.9722878E1,4.002968E1,0E0,2.3572441E1,5.0053024E1,1.3368105E1,3.2815475E0,2.9324875E1,3.6589283E1,3.7525967E1,1.2546551E1,2.4603737E1,9.026926E0,9.768219E-1,2.1122795E1,0E0,0E0,0E0,0E0,0E0,0E0,0E0,0E0,0E0,0E0,0E0,0E0,0E0,0E0,0E0,0E0,0E0,0E0,0E0,0E0,0E0,0E0,0E0,0E0],"parents":[2147483647,0,0,1,1,2,2,3,3,4,4,5,5,6,6,7,7,8,8,9,9,10,10,12,12,13,13,15,15,16,16,17,17,18,18,19,19,20,20,21,21,22,22,23,23,24,24,25,25,26,26],"right_children":[2,4,6,8,10,12,14,16,18,20,22,-1,24,26,-1,28,30,32,34,36,38,40,42,44,46,48,50,-1,-1,-1,-1,-1,-1,-1,-1,-1,-1,-1,-1,-1,-1,-1,-1,-1,-1,-1,-1,-1,-1,-1,-1],"split_conditions":[2.8E1,1.3666667E1,4.4666668E1,1.2E1,1.8E1,1.8E1,6.1E1,8E0,8E0,1.7E1,2.3E1,5.212626E-1,3.5E1,4.4E1,7.354178E-1,8E0,1.1E1,9.666667E0,1.4E1,1.6666666E1,1.8333334E1,1.9333334E1,3.6E1,4.8E1,9E0,3.2E1,4.8666668E1,-4.015443E-2,-1.2758826E-1,9.276044E-2,-4.225182E-2,-1.3589722E-1,6.6213347E-3,-1.1367615E-1,-2.0133844E-1,1.3323687E-1,3.3619043E-1,-2.3055954E-2,1.1953118E-1,-4.8359163E-2,9.86881E-2,-7.254364E-2,-2.954349E-1,2.372792E-1,1.1432375E-2,-1.5884407E-2,1.1547762E-1,6.3401186E-1,2.3645222E-1,-1.9664021E-1,1.9517113E-1],"split_indices":[4,4,4,3,3,2,4,4,2,2,2,0,3,2,0,2,2,4,3,4,4,4,2,2,5,2,4,0,0,0,0,0,0,0,0,0,0,0,0,0,0,0,0,0,0,0,0,0,0,0,0],"split_type":[0,0,0,0,0,0,0,0,0,0,0,0,0,0,0,0,0,0,0,0,0,0,0,0,0,0,0,0,0,0,0,0,0,0,0,0,0,0,0,0,0,0,0,0,0,0,0,0,0,0,0],"sum_hessian":[7.48E2,6.84E2,6.4E1,4.81E2,2.03E2,5.4E1,1E1,4.25E2,5.6E1,1.06E2,9.7E1,2E0,5.2E1,9E0,1E0,3.17E2,1.08E2,2.8E1,2.8E1,3.5E1,7.1E1,6.8E1,2.9E1,3.2E1,2E1,4E0,5E0,2.83E2,3.4E1,5.3E1,5.5E1,9E0,1.9E1,1.6E1,1.2E1,2.4E1,1.1E1,3.9E1,3.2E1,3.7E1,3.1E1,2.7E1,2E0,2.6E1,6E0,1.2E1,8E0,2E0,2E0,1E0,4E0],"tree_param":{"num_deleted":"0","num_feature":"7","num_nodes":"51","size_leaf_vector":"1"}},{"base_weights":[4.2962767E-2,-1.17918305E-1,2.15789E0,-3.3501345E-1,4.759509E-1,1.9306777E0,6.9864696E-1,-7.4968916E-1,-2.2202423E-1,1.5798427E0,1.5513304E-1,2.6945996E0,1.0631171E0,-5.107394E-1,-1.149109E0,4.5951355E-1,-3.7926462E-1,2.2397957E0,7.4190474E-1,8.3923143E-1,-5.218172E-1,5.0213346E0,1.6291757E0,-1.16077274E-1,2.0821464E0,-6.909211E-2,5.1850088E-2,-1.216725E-1,-4.3245222E-2,1.2976912E-1,4.7706766E-3,-5.8544762E-2,-6.0728616E-3,1.6040067E-1,3.4638837E-1,-2.2342034E-2,1.5520272E-1,1.8447094E-2,1.8263002E-1,-3.1201795E-2,-3.3546433E-1,5.729016E-1,1.9321932E-1,2.7648672E-1,6.416424E-2,2.9419277E-2,-1.5817083E-1,4.697622E-2,2.3117304E-1],"categories":[],"categories_nodes":[],"categories_segments":[],"categories_sizes":[],"default_left":[0,0,0,0,0,0,0,0,0,0,0,0,0,0,0,0,0,0,0,0,0,0,0,0,0,0,0,0,0,0,0,0,0,0,0,0,0,0,0,0,0,0,0,0,0,0,0,0,0],"id":29,"left_children":[1,3,5,7,9,11,-1,13,15,17,19,21,23,25,27,29,31,33,35,37,39,41,43,45,47,-1,-1,-1,-1,-1,-1,-1,-1,-1,-1,-1,-1,-1,-1,-1,-1,-1,-1,-1,-1,-1,-1,-1,-1],"loss_changes":[2.5510303E2,9.002096E1,4.4658386E1,2.3775887E1,6.598063E1,3.1598236E1,0E0,9.816212E0,4.3361877E1,2.156427E1,6.805061E1,5.875125E1,3.1484163E1,1.3339762E1,1.4121208E0,2.6170795E1,2.1506409E1,1.2343925E1,1.5987382E1,4.684252E1,4.2933327E1,6.419464E0,2.0656609E1,8.282285E0,4.096531E0,0E0,0E0,0E0,0E0,0E0,0E0,0E0,0E0,0E0,0E0,0E0,0E0,0E0,0E0,0E0,0E0,0E0,0E0,0E0,0E0,0E0,0E0,0E0,0E0],"parents":[2147483647,0,0,1,1,2,2,3,3,4,4,5,5,7,7,8,8,9,9,10,10,11,11,12,12,13,13,14,14,15,15,16,16,17,17,18,18,19,19,20,20,21,21,22,22,23,23,24,24],"right_children":[2,4,6,8,10,12,-1,14,16,18,20,22,24,26,28,30,32,34,36,38,40,42,44,46,48,-1,-1,-1,-1,-1,-1,-1,-1,-1,-1,-1,-1,-1,-1,-1,-1,-1,-1,-1,-1,-1,-1,-1,-1],"split_conditions":[3.0666666E1,1.5E1,6.1E1,3.3333333E0,1.4E1,3.5E1,6.9864696E-1,3E0,4E0,1E1,2E1,3.2E1,1.1E1,3E0,1.1E1,5E0,1E1,1.8333334E1,1.1E1,9E0,3.7E1,3.2E1,2.4E1,8E0,3E0,-6.909211E-2,5.1850088E-2,-1.216725E-1,-4.3245222E-2,1.2976912E-1,4.7706766E-3,-5.8544762E-2,-6.0728616E-3,1.6040067E-1,3.4638837E-1,-2.2342034E-2,1.5520272E-1,1.8447094E-2,1.8263002E-1,-3.1201795E-2,-3.3546433E-1,5.729016E-1,1.9321932E-1,2.7648672E-1,6.416424E-2,2.9419277E-2,-1.5817083E-1,4.697622E-2,2.3117304E-1],"split_indices":[4,4,4,4,3,3,0,2,3,5,2,2,5,4,5,2,4,4,5,5,2,3,3,5,1,0,0,0,0,0,0,0,0,0,0,0,0,0,0,0,0,0,0,0,0,0,0,0,0],"split_type":[0,0,0,0,0,0,0,0,0,0,0,0,0,0,0,0,0,0,0,0,0,0,0,0,0,0,0,0,0,0,0,0,0,0,0,0,0,0,0,0,0,0,0,0,0,0,0,0,0],"sum_hessian":[7.48E2,6.96E2,5.2E1,5.1E2,1.86E2,5.1E1,1E0,1.08E2,4.02E2,4.1E1,1.45E2,2.6E1,2.5E1,6.9E1,3.9E1,7.5E1,3.27E2,2.2E1,1.9E1,7.2E1,7.3E1,7E0,1.9E1,1.2E1,1.3E1,5.9E1,1E1,3.5E1,4E0,2.4E1,5.1E1,1.98E2,1.29E2,1.6E1,6E0,9E0,1E1,4.4E1,2.8E1,6.9E1,4E0,5E0,2E0,8E0,1.1E1,1E1,2E0,2E0,1.1E1],"tree_param":{"num_deleted":"0","num_feature":"7","num_nodes":"49","size_leaf_vector":"1"}},{"base_weights":[4.175948E-2,-1.3702215E-1,1.6502374E0,-3.5684907E-1,2.62901E-1,1.2673229E0,3.7628927E0,-3.347769E-1,-2.656949E0,1.2566937E0,3.339297E-2,4.2331973E-1,1.0034426E0,2.8117528E0,6.637146E-1,-5.5448884E-1,-1.5243103E-1,-2.6426483E-2,-3.366422E-1,1.7737936E0,5.8125603E-1,8.003329E-1,-2.4911542E-1,2.3575532E0,6.5838724E-1,5.6494194E-1,1.3961587E0,-3.74733E-2,-9.193801E-2,4.26809E-2,-4.653583E-2,1.1597711E-1,2.2513704E-1,-6.96178E-2,1.4209215E-1,1.3368553E-1,-6.4798094E-2,-1.3011192E-1,2.7486575E-3,2.7364382E-1,-9.050913E-2,-1.0001088E-3,1.581876E-1,-1.7889957E-1,2.1067517E-1],"categories":[],"categories_nodes":[],"categories_segments":[],"categories_sizes":[],"default_left":[0,0,0,0,0,0,0,0,0,0,0,0,0,0,0,0,0,0,0,0,0,0,0,0,0,0,0,0,0,0,0,0,0,0,0,0,0,0,0,0,0,0,0,0,0],"id":30,"left_children":[1,3,5,7,9,11,13,15,17,19,21,-1,23,25,-1,27,29,-1,-1,31,33,35,37,39,41,-1,43,-1,-1,-1,-1,-1,-1,-1,-1,-1,-1,-1,-1,-1,-1,-1,-1,-1,-1],"loss_changes":[2.1561328E2,5.9435684E1,5.590367E1,2.1245445E1,5.469805E1,4.6623543E1,1.1409973E1,1.7263E1,5.9005547E0,1.4686066E1,4.26661E1,0E0,2.6949646E1,3.228235E1,0E0,1.2511379E1,4.33385E1,0E0,0E0,4.7199936E0,2.3514177E1,4.2050056E1,4.1937798E1,1.7310738E1,3.0878275E1,0E0,2.1875753E1,0E0,0E0,0E0,0E0,0E0,0E0,0E0,0E0,0E0,0E0,0E0,0E0,0E0,0E0,0E0,0E0,0E0,0E0],"parents":[2147483647,0,0,1,1,2,2,3,3,4,4,5,5,6,6,7,7,8,8,9,9,10,10,12,12,13,13,15,15,16,16,19,19,20,20,21,21,22,22,23,23,24,24,26,26],"right_children":[2,4,6,8,10,12,14,16,18,20,22,-1,24,26,-1,28,30,-1,-1,32,34,36,38,40,42,-1,44,-1,-1,-1,-1,-1,-1,-1,-1,-1,-1,-1,-1,-1,-1,-1,-1,-1,-1],"split_conditions":[2.6333334E1,1.1666667E1,4.4666668E1,1.7E1,1.1E1,1.8E1,6.1E1,5E0,1E0,1.9E1,1.3E1,4.2331973E-1,2.3E1,3.2E1,6.637146E-1,4E0,6E0,-2.6426483E-2,-3.366422E-1,1.3E1,1.5E1,2.4E1,1.5666667E1,4.8E1,3.4E1,5.6494194E-1,4.8666668E1,-3.74733E-2,-9.193801E-2,4.26809E-2,-4.653583E-2,1.1597711E-1,2.2513704E-1,-6.96178E-2,1.4209215E-1,1.3368553E-1,-6.4798094E-2,-1.3011192E-1,2.7486575E-3,2.7364382E-1,-9.050913E-2,-1.0001088E-3,1.581876E-1,-1.7889957E-1,2.1067517E-1],"split_indices":[4,4,4,2,3,2,4,4,0,2,2,0,3,2,0,2,3,0,0,4,4,3,4,2,4,0,4,0,0,0,0,0,0,0,0,0,0,0,0,0,0,0,0,0,0],"split_type":[0,0,0,0,0,0,0,0,0,0,0,0,0,0,0,0,0,0,0,0,0,0,0,0,0,0,0,0,0,0,0,0,0,0,0,0,0,0,0,0,0,0,0,0,0],"sum_hessian":[7.48E2,6.74E2,7.4E1,4.35E2,2.39E2,6.4E1,1E1,4.32E2,3E0,4.4E1,1.95E2,4E0,6E1,9E0,1E0,1.95E2,2.37E2,1E0,2E0,2.4E1,2E1,5.2E1,1.43E2,1.1E1,4.9E1,2E0,7E0,1.32E2,6.3E1,8.3E1,1.54E2,1.2E1,1.2E1,8E0,1.2E1,3.8E1,1.4E1,2.9E1,1.14E2,1E1,1E0,2.9E1,2E1,1E0,6E0],"tree_param":{"num_deleted":"0","num_feature":"7","num_nodes":"45","size_leaf_vector":"1"}},{"base_weights":[4.0097326E-2,-1.6974849E-1,1.2104644E0,-4.6865514E-1,1.3808869E-2,8.848924E-1,3.016087E0,-2.3279873E-1,-8.249284E-1,8.9928225E-2,-1.4972862E0,1.5109148E0,1.4436902E-1,2.4164312E0,6.3052905E-1,-7.343224E-1,1.2152016E-1,-7.021372E-1,-1.8107196E0,-5.845442E-2,7.650561E-1,-4.126476E-1,-2.095605E0,2.4064348E0,5.594349E-1,-4.4228113E-1,7.502488E-1,4.4367447E0,1.3732647E0,-1.0763849E-1,-5.2783E-2,8.72402E-2,-4.2561997E-2,-4.6150476E-2,-1.167488E-1,-9.9718235E-2,-2.1868809E-1,3.7826575E-2,-3.801785E-2,1.7754042E-1,-2.3828378E-2,-6.4312324E-2,6.0034085E-2,-3.2572366E-2,-2.2268918E-1,2.8029948E-1,1.3018712E-1,-3.8395092E-2,1.7706631E-1,-2.0157479E-2,-2.9892635E-1,2.8504086E-1,5.2522298E-2,6.342752E-1,1.0518227E-1,-2.4167443E-2,1.9384304E-1],"categories":[],"categories_nodes":[],"categories_segments":[],"categories_sizes":[],"default_left":[0,0,0,0,0,0,0,0,0,0,0,0,0,0,0,0,0,0,0,0,0,0,0,0,0,0,0,0,0,0,0,0,0,0,0,0,0,0,0,0,0,0,0,0,0,0,0,0,0,0,0,0,0,0,0,0,0],"id":31,"left_children":[1,3,5,7,9,11,13,15,17,19,21,23,25,27,-1,29,31,33,35,37,39,41,43,45,47,49,51,53,55,-1,-1,-1,-1,-1,-1,-1,-1,-1,-1,-1,-1,-1,-1,-1,-1,-1,-1,-1,-1,-1,-1,-1,-1,-1,-1,-1,-1],"loss_changes":[1.8415735E2,3.4901573E1,6.434712E1,2.0143059E1,4.5568966E1,4.521312E1,1.8294327E1,2.6211033E1,1.0349098E1,3.7811546E1,1.1465485E1,4.381343E1,1.6682035E1,2.7627556E1,0E0,3.7404823E0,3.611418E1,9.203323E0,8.794937E-1,4.3699856E1,6.935619E1,2.2538462E0,2.0629997E0,8.177551E0,3.1531548E1,1.4111237E1,9.372475E0,2.5586975E1,1.1420969E1,0E0,0E0,0E0,0E0,0E0,0E0,0E0,0E0,0E0,0E0,0E0,0E0,0E0,0E0,0E0,0E0,0E0,0E0,0E0,0E0,0E0,0E0,0E0,0E0,0E0,0E0,0E0,0E0],"parents":[2147483647,0,0,1,1,2,2,3,3,4,4,5,5,6,6,7,7,8,8,9,9,10,10,11,11,12,12,13,13,15,15,16,16,17,17,18,18,19,19,20,20,21,21,22,22,23,23,24,24,25,25,26,26,27,27,28,28],"right_children":[2,4,6,8,10,12,14,16,18,20,22,24,26,28,-1,30,32,34,36,38,40,42,44,46,48,50,52,54,56,-1,-1,-1,-1,-1,-1,-1,-1,-1,-1,-1,-1,-1,-1,-1,-1,-1,-1,-1,-1,-1,-1,-1,-1,-1,-1,-1,-1],"split_conditions":[2.2333334E1,6E0,4.0333332E1,4E0,2.5E1,2.7E1,6.1E1,2.6666667E0,8E0,1.7333334E1,6E0,3E1,3.1E1,1E1,6.3052905E-1,2E0,4E0,5E0,1.1E1,9E0,1.9E1,2E1,8E0,1.3E1,2.9333334E1,3.7E1,1.8E1,3.2E1,1.1E1,-1.0763849E-1,-5.2783E-2,8.72402E-2,-4.2561997E-2,-4.6150476E-2,-1.167488E-1,-9.9718235E-2,-2.1868809E-1,3.7826575E-2,-3.801785E-2,1.7754042E-1,-2.3828378E-2,-6.4312324E-2,6.0034085E-2,-3.2572366E-2,-2.2268918E-1,2.8029948E-1,1.3018712E-1,-3.8395092E-2,1.7706631E-1,-2.0157479E-2,-2.9892635E-1,2.8504086E-1,5.2522298E-2,6.342752E-1,1.0518227E-1,-2.4167443E-2,1.9384304E-1],"split_indices":[4,4,4,2,2,3,4,4,2,4,1,2,4,5,0,4,3,3,1,3,3,4,3,1,4,2,2,2,5,0,0,0,0,0,0,0,0,0,0,0,0,0,0,0,0,0,0,0,0,0,0,0,0,0,0,0,0],"split_type":[0,0,0,0,0,0,0,0,0,0,0,0,0,0,0,0,0,0,0,0,0,0,0,0,0,0,0,0,0,0,0,0,0,0,0,0,0,0,0,0,0,0,0,0,0,0,0,0,0,0,0,0,0,0,0,0,0],"sum_hessian":[7.48E2,6.35E2,1.13E2,2.41E2,3.94E2,9.7E1,1.6E1,1.46E2,9.5E1,3.76E2,1.8E1,5.2E1,4.5E1,1.5E1,1E0,6E1,8.6E1,8.6E1,9E0,3.09E2,6.7E1,7E0,1.1E1,2.6E1,2.6E1,2.3E1,2.2E1,4E0,1.1E1,2.1E1,3.9E1,3.6E1,5E1,5.8E1,2.8E1,4E0,5E0,1.31E2,1.78E2,3.3E1,3.4E1,6E0,1E0,1E0,1E1,1.8E1,8E0,1.5E1,1.1E1,2.2E1,1E0,1E0,2.1E1,2E0,2E0,3E0,8E0],"tree_param":{"num_deleted":"0","num_feature":"7","num_nodes":"57","size_leaf_vector":"1"}},{"base_weights":[3.796244E-2,-8.7762386E-2,1.6906462E0,-2.7167016E-1,3.342515E-1,1.492773E0,5.990025E-1,-1.8730171E-1,-8.790943E-1,1.0116373E0,-5.960292E-2,2.1408234E0,7.6238346E-1,-3.277497E-1,3.8330314E-1,-3.2042024E-1,-1.373367E0,1.7587887E0,9.11055E-2,8.6846083E-1,-3.5636505E-1,4.2015963E0,1.209473E0,-1.9382697E-1,1.5958372E0,-2.447117E-2,-1.0313886E-1,1.0354751E-1,-3.4184422E-2,1.4154409E-2,-1.0892295E-1,-1.0585882E-1,-2.0252053E-1,1.3610372E-1,4.5094925E-1,5.184886E-2,-1.0719395E-1,2.6102E-2,2.4593008E-1,-2.1998096E-2,-2.9854974E-1,2.6421776E-1,5.919902E-1,2.1746436E-1,3.8480584E-2,1.5977183E-2,-1.425747E-1,2.6974043E-1,1.187459E-1],"categories":[],"categories_nodes":[],"categories_segments":[],"categories_sizes":[],"default_left":[0,0,0,0,0,0,0,0,0,0,0,0,0,0,0,0,0,0,0,0,0,0,0,0,0,0,0,0,0,0,0,0,0,0,0,0,0,0,0,0,0,0,0,0,0,0,0,0,0],"id":32,"left_children":[1,3,5,7,9,11,-1,13,15,17,19,21,23,25,27,29,31,33,35,37,39,41,43,45,47,-1,-1,-1,-1,-1,-1,-1,-1,-1,-1,-1,-1,-1,-1,-1,-1,-1,-1,-1,-1,-1,-1,-1,-1],"loss_changes":[1.5577812E2,5.4186115E1,3.614702E1,2.4741596E1,5.662007E1,2.2980988E1,0E0,3.4425682E1,1.5852047E1,5.348635E1,